{"model_type": "Sequential", "descriptors": [{"layer": "Input2D", "height": 1, "width": 1, "channel": 42, "batch": 1}, {"layer": "Dense2D", "units": 42}, {"layer": "Bias2D", "units": 42}, {"layer": "ReLu"}, {"layer": "Dense2D", "units": 42}, {"layer": "Bias2D", "units": 42}, {"layer": "ReLu"}, {"layer": "Dense2D", "units": 42}, {"layer": "Bias2D", "units": 42}, {"layer": "ReLu"}, {"layer": "Dense2D", "units": 42}, {"layer": "Bias2D", "units": 42}, {"layer": "ReLu"}, {"layer": "Dense2D", "units": 42}, {"layer": "Bias2D", "units": 42}, {"layer": "ReLu"}, {"layer": "Dense2D", "units": 42}, {"layer": "Bias2D", "units": 42}, {"layer": "ReLu"}, {"layer": "Dense2D", "units": 42}, {"layer": "Bias2D", "units": 42}, {"layer": "ReLu"}, {"layer": "Dense2D", "units": 1}, {"layer": "Bias2D", "units": 1}, {"layer": "Sigmoid"}], "weights": [[[[[-0.0919971764087677, 0.4298548400402069, 0.05640919879078865, 1.1080479621887207, -0.5650304555892944, -1.3655235767364502, 0.34044185280799866, -0.45753008127212524, -0.8043469190597534, 0.8455305099487305, -0.47167086601257324, -0.19816981256008148, -0.5141298770904541, -0.2062537670135498, 0.7844032049179077, 0.35998252034187317, 0.16636191308498383, 1.0299780368804932, 1.2479536533355713, 0.34866517782211304, 0.6116130352020264, -0.5031402111053467, -0.3202587962150574, -0.4757949709892273, -1.0934934616088867, 0.5507047176361084, -0.4557899236679077, 0.4678918123245239, -0.4542609751224518, 0.7125545740127563, -0.5582448244094849, 0.6036219000816345, -0.11081468313932419, -0.7462428212165833, -0.8259556293487549, 0.26182448863983154, -0.5475684404373169, -0.20410364866256714, -1.4127602577209473, 0.32446736097335815, 0.44805556535720825, -0.22273489832878113], [0.558410108089447, 0.32272741198539734, 0.05869777500629425, 0.6222991943359375, 1.4676282405853271, -1.6836618185043335, 0.37865015864372253, 0.017914947122335434, 1.235075831413269, 0.6762832999229431, -1.1888433694839478, 0.15093442797660828, 0.019340772181749344, 0.2977282404899597, 0.5260311961174011, 1.2816747426986694, 0.6352150440216064, 1.1982442140579224, -0.18394234776496887, -0.12452661991119385, -0.367572158575058, -0.5454355478286743, 0.4193311333656311, -1.1741271018981934, -0.7795400023460388, 0.9451572299003601, -1.4059807062149048, 0.6971966624259949, -0.19572137296199799, 0.24828200042247772, 0.5873641967773438, 0.4956086575984955, -0.5872935056686401, 0.3445526361465454, 0.05272725224494934, -0.6308525800704956, -0.9244149923324585, -0.2234361618757248, 0.2614824175834656, -0.33384379744529724, 0.08554303646087646, -0.5889422297477722], [-0.5778989791870117, 0.9437052607536316, -0.02457890473306179, 0.34916749596595764, 0.910935640335083, -1.460036039352417, 1.210797667503357, 0.08649841696023941, -0.7068986296653748, 0.6563947796821594, -0.7648056149482727, 1.0131661891937256, -0.6243186593055725, 0.21313588321208954, 1.2644364833831787, 0.0609462596476078, 1.3114612102508545, -0.3107515275478363, -1.2887665033340454, 0.28684812784194946, 0.6914692521095276, 0.8364104628562927, -0.1924014836549759, -0.8005363941192627, -0.32930663228034973, 0.0864860936999321, -0.3815923035144806, 1.3528790473937988, 0.9907589554786682, -0.060553841292858124, 1.3308159112930298, 1.4949359893798828, -0.09137481451034546, 0.5365643501281738, -1.2402540445327759, 0.4624684453010559, -0.9458591341972351, -0.570631742477417, 0.6376622915267944, -0.3288080096244812, -1.3169052600860596, -0.8771134614944458], [2.10866641998291, 0.20618489384651184, 0.0787818506360054, 0.9941859841346741, 0.06548816710710526, 0.18192118406295776, 1.2419301271438599, 1.3518785238265991, -0.4308668076992035, -0.08048035949468613, 0.37650856375694275, 0.18311087787151337, 0.29118990898132324, -0.48355329036712646, 0.7108063101768494, 0.5129102468490601, -0.750867486000061, -0.9099117517471313, -0.752133309841156, 0.7716911435127258, 1.7663408517837524, -0.6981658935546875, -0.13250651955604553, -0.021838299930095673, -0.7853025794029236, 1.1451014280319214, -0.07168152183294296, -0.22580653429031372, 0.6933600306510925, -0.4041307270526886, 0.49332982301712036, 0.015768537297844887, -0.22249378263950348, 0.47884228825569153, -0.35147881507873535, -0.04324311763048172, -1.2563258409500122, -0.11949563026428223, -0.08421579003334045, -0.06715240329504013, -0.4224732518196106, -1.5544389486312866], [1.4482886791229248, -0.6268288493156433, -0.10713797062635422, 0.6704729795455933, -0.25712117552757263, -1.5116828680038452, 1.3211361169815063, -0.30942782759666443, -0.2320583611726761, -0.2541823387145996, -0.38332533836364746, 0.926476776599884, -1.2796199321746826, -0.42454418540000916, 0.4934521019458771, -0.4061742126941681, 0.41994860768318176, 1.0770158767700195, 0.6421868205070496, -0.4646698832511902, 1.0428060293197632, -0.3892328143119812, -0.16926749050617218, 0.7774980068206787, -0.6794928908348083, -1.5791032314300537, 0.46980905532836914, -1.994186520576477, 0.02645246498286724, 0.4420357346534729, 0.7927060723304749, 0.1269926130771637, 0.6036926507949829, 0.37008997797966003, -0.4649946987628937, 0.05251149460673332, -0.49243831634521484, -0.8206451535224915, -0.9468978047370911, -0.5497916340827942, 0.6293830871582031, -0.7365291118621826], [0.7417774200439453, -0.3449181914329529, -0.13134531676769257, 0.83688884973526, 0.6201252937316895, -0.011257823556661606, 1.1537057161331177, 0.8387448787689209, -0.04124056175351143, 0.15074269473552704, -1.1997487545013428, -0.8123914003372192, -0.5644838809967041, 0.013045664876699448, -0.8538955450057983, -0.44975703954696655, -0.1547994315624237, 1.1388753652572632, -1.0422364473342896, -1.3657011985778809, 0.22050614655017853, -0.6742737293243408, 0.9157397150993347, 0.41072311997413635, -0.5833529829978943, -1.375766396522522, 0.7260802388191223, 0.3472738265991211, 0.13569845259189606, 0.20058274269104004, 0.8951410055160522, 0.44856786727905273, 0.7094639539718628, -0.4153158962726593, 0.3329925835132599, -0.4823490381240845, -0.41671207547187805, 0.07400031387805939, 0.5889121294021606, -0.22358545660972595, -0.287814199924469, -1.4447139501571655], [-0.1312871128320694, 1.058239221572876, -0.7274429798126221, 0.6811380386352539, -0.3169403374195099, 0.11054030060768127, 1.193165898323059, 1.251827597618103, -0.2567797601222992, -0.5385114550590515, -0.8797279596328735, -1.4178211688995361, -0.8403037786483765, 0.013812722638249397, 0.8159618377685547, -0.47794365882873535, -0.5456982254981995, 0.7547899484634399, -0.44875696301460266, 0.14188933372497559, 0.1133936196565628, -0.49211519956588745, 1.0921486616134644, 0.5246485471725464, -0.3863166570663452, -0.06074150279164314, 0.5312477350234985, 0.1605006456375122, -0.41076257824897766, 0.531459629535675, 0.5194276571273804, 1.3244599103927612, -0.3626444637775421, -0.5156598091125488, -1.167338252067566, 1.0089436769485474, 0.6467729210853577, 0.23153246939182281, 0.3385648727416992, -0.01413512509316206, 0.7936071157455444, -0.3926718235015869], [0.3257458806037903, 0.3585263788700104, 0.152287095785141, 0.05935806408524513, 0.15912370383739471, -0.15720152854919434, 0.2848967909812927, 0.44279879331588745, 0.07899497449398041, 0.9971588253974915, -0.5067849159240723, -0.44063201546669006, -0.5910595059394836, 0.16871722042560577, 0.0005821649101562798, -0.22469685971736908, -0.4514869451522827, 0.691477358341217, 0.1865353286266327, -0.7527225613594055, 0.5327321290969849, 0.025273801758885384, 0.1791459619998932, -0.9068945646286011, -1.0039705038070679, 0.5111548900604248, -0.1414896845817566, -0.151438370347023, -0.9200215935707092, 1.0157196521759033, 0.22103554010391235, 0.5895538330078125, 0.6045042276382446, -1.7897275686264038, -0.679481029510498, 0.5511862635612488, -0.5144164562225342, -0.12059798091650009, 0.1437840312719345, 1.0659027099609375, -0.22767934203147888, -0.31448695063591003], [-0.2975693941116333, -0.14610998332500458, 0.4242865741252899, 0.3809922933578491, 0.2894769012928009, 0.28049248456954956, 0.1848985254764557, 0.40365171432495117, -0.8456805944442749, 0.15986044704914093, -0.7717077136039734, 0.09779255837202072, -1.151612401008606, 0.47274693846702576, 0.5681560635566711, 0.3510167896747589, -0.49045655131340027, 0.8911340832710266, -0.020286597311496735, -0.43646517395973206, 0.1998080015182495, 0.2697528600692749, 0.6450802087783813, -0.7561362981796265, -0.5306877493858337, 0.6158413887023926, -0.328666090965271, 0.32531195878982544, -0.15134161710739136, 0.26823922991752625, -1.047031044960022, 0.4602130353450775, 0.762103796005249, 0.43174004554748535, 0.05200004577636719, 0.7722497582435608, -0.33923497796058655, -1.1685298681259155, 0.14879460632801056, 0.13449139893054962, 0.14433227479457855, -0.5632050633430481], [-0.3772195279598236, 0.1835404336452484, 0.4343104660511017, 0.4372027814388275, -0.3871456980705261, 0.14609088003635406, -0.06989816576242447, -0.4290497899055481, 0.6557780504226685, 0.5412306785583496, -0.40210187435150146, -0.4725709557533264, -1.382469654083252, -0.5620014071464539, 0.05350426584482193, 0.8670192360877991, -0.8419036269187927, 0.3454546332359314, 0.5107320547103882, -0.34410855174064636, 0.6401410698890686, 0.16871151328086853, 0.5883168578147888, -0.24212679266929626, -0.7069322466850281, 0.5749939680099487, -0.47886359691619873, 0.06215626001358032, 0.3734157979488373, 0.35841888189315796, -0.5604755878448486, 0.920862078666687, 1.2690201997756958, 0.7382791042327881, -0.2148236781358719, 0.38968002796173096, -0.33669915795326233, -0.45342808961868286, 0.7397527694702148, -0.4241136908531189, -0.7336063981056213, -0.2853001654148102], [-0.13307125866413116, -0.017677364870905876, 1.7980971336364746, 0.18608789145946503, -0.4348432123661041, 0.06506016850471497, -0.5652574300765991, -0.5282115936279297, 0.051089003682136536, -0.20066645741462708, -0.6145789623260498, 0.058965858072042465, -0.9439256191253662, -0.10628415644168854, 0.43354785442352295, 0.46219030022621155, -0.08810298889875412, -0.014154607430100441, 0.1010831743478775, -0.8026867508888245, 0.7113345265388489, 0.18545357882976532, 0.6552310585975647, 0.8172063231468201, -0.6900919079780579, 0.5232493877410889, -1.7364850044250488, -0.11344882100820541, -0.37925785779953003, 0.037400923669338226, 0.14487779140472412, 1.0019843578338623, 0.06838376820087433, -0.2307390421628952, 0.5307807326316833, 0.6652877926826477, -0.7832804322242737, -1.3212662935256958, -0.1481359601020813, 0.9725538492202759, 0.10571201145648956, -0.25885269045829773], [-0.16308891773223877, 0.33856019377708435, 0.9500211477279663, 0.1053822934627533, 0.3126961886882782, 0.17595161497592926, 0.47205668687820435, -0.3613700866699219, -0.3014639914035797, 0.004099704325199127, -0.3484669625759125, 0.08285278081893921, -0.15718984603881836, -0.5825967788696289, 0.9227039813995361, 0.5905909538269043, -0.0566333569586277, 0.5219605565071106, -0.27523720264434814, -1.6876522302627563, 0.7666205763816833, 0.46879842877388, 0.85166996717453, -0.5796841979026794, -0.23875832557678223, 0.23934505879878998, -0.6064975261688232, 0.048182763159275055, -1.442034363746643, 0.946754515171051, 0.09980428218841553, 0.3299696743488312, 0.07134658843278885, 0.32719722390174866, 0.43006661534309387, 0.24167518317699432, -0.13159318268299103, -0.8227745890617371, -0.08711479604244232, -1.7346007823944092, 0.3711393177509308, -0.3411896824836731], [-0.6955437064170837, 0.35381820797920227, 0.9680601954460144, 0.36209699511528015, -0.08659561723470688, -0.0445929579436779, 0.39835506677627563, 0.5730659365653992, -0.844704806804657, 0.6445110440254211, -0.7967503666877747, -0.3583211302757263, -0.7544703483581543, 0.5738028883934021, 0.28068456053733826, 0.12452257424592972, -1.2866264581680298, 0.6681332588195801, -0.49215537309646606, -0.7006811499595642, 0.5408937931060791, -0.8803701996803284, 0.767389178276062, -0.15092456340789795, -0.1294844150543213, 0.5198138356208801, -1.2147808074951172, 0.07557898759841919, -0.3420504927635193, 0.8157788515090942, 0.05139779672026634, 0.5965465903282166, -0.4564344882965088, 0.24434605240821838, -0.5088212490081787, 0.5556305050849915, -0.20236454904079437, 0.34650349617004395, -0.07392875105142593, 0.35870161652565, 0.7232364416122437, -0.456882119178772], [-0.6201457381248474, 0.7453559041023254, -0.006784301716834307, 1.3400367498397827, 0.6905165910720825, -0.40388110280036926, 0.024358319118618965, 0.7514927983283997, -0.1479998677968979, -0.6566891670227051, -0.45294344425201416, -0.28085747361183167, -0.4416343867778778, -0.20298844575881958, 0.15612579882144928, 0.6147797107696533, -1.1059647798538208, 0.8100430369377136, -0.4540306627750397, -0.8425716161727905, 0.4421504735946655, -0.4686168432235718, 0.3101119101047516, -0.5005805492401123, -0.7574518322944641, 0.6905971765518188, -0.697613537311554, -0.07031562924385071, -0.18718935549259186, 1.0556395053863525, 0.3866026997566223, 0.3462076485157013, -0.32430896162986755, 0.0840008333325386, -0.2871226370334625, 0.47901996970176697, 1.3027715682983398, 0.21904851496219635, -0.7650963664054871, 0.13299334049224854, -0.7299569845199585, 0.036265406757593155], [0.3201175630092621, -0.46372783184051514, -1.0581047534942627, 0.6943506002426147, 0.2705990970134735, -0.1356549710035324, -0.5407611727714539, 0.284620076417923, -0.2659386396408081, 1.113574743270874, -0.4150840938091278, -0.3879392445087433, 0.2223503291606903, 0.030481280758976936, -0.30792585015296936, -0.658147394657135, 0.3195136487483978, 0.4110947251319885, 0.48490312695503235, -0.8100901246070862, 0.5950206518173218, -0.03720254823565483, -0.19906842708587646, 0.2736325263977051, -1.4352082014083862, 0.7461704611778259, 0.05157144367694855, -0.03771638497710228, -0.43582770228385925, 1.4824512004852295, -0.4842791259288788, 0.3321186900138855, 0.5062327980995178, -1.8401738405227661, -0.2920598089694977, 1.0748615264892578, -0.9818596243858337, -0.07673462480306625, 1.3937461376190186, 0.9214467406272888, -0.937790036201477, 0.036430228501558304], [-0.2880966067314148, -0.15041589736938477, -0.061783745884895325, 0.776789665222168, -0.5010786056518555, 0.09634824097156525, -0.33643582463264465, 0.05171205848455429, -1.8455694913864136, 0.24900200963020325, -0.17378664016723633, -0.5273679494857788, -0.13378213346004486, 1.4566935300827026, -0.005593909416347742, 0.6237809062004089, -1.959435224533081, 0.7187039852142334, -0.6555224061012268, -0.25308939814567566, 0.7696252465248108, 0.3588792085647583, -0.09196850657463074, 0.25127196311950684, -1.0072416067123413, 0.3989667594432831, -0.546066403388977, 0.660525381565094, -0.059605710208415985, 0.6698118448257446, -0.03512462228536606, 0.6670780777931213, 0.35492992401123047, 0.47021883726119995, 0.8824779391288757, 0.8255452513694763, -0.6257585287094116, -0.7742558121681213, 0.20929758250713348, -0.9499386548995972, 0.6000122427940369, 0.8563202023506165], [-0.8455618619918823, 0.9062401056289673, 0.16900445520877838, 0.6343998908996582, 0.6286172270774841, -0.21561557054519653, -0.1506219208240509, -0.11522344499826431, 0.3162577450275421, 0.49212607741355896, 0.06984861195087433, -0.6073089838027954, -1.0814273357391357, 0.3081049621105194, 1.0980703830718994, -0.06395764648914337, -0.5533384680747986, 0.30456677079200745, 0.3049542009830475, -1.048545241355896, -0.27721235156059265, 0.40851515531539917, 0.9482058882713318, 0.2875830829143524, -0.10933879017829895, 1.0725767612457275, -0.7262510657310486, -0.02732015587389469, -0.37434837222099304, 0.3069283068180084, -0.5124440789222717, 0.7399392127990723, 1.5555351972579956, -0.057741761207580566, 0.722933828830719, 0.2509762942790985, -0.5686930418014526, 0.8658390641212463, -0.9548342227935791, -0.39393335580825806, -0.5331791043281555, -0.5996453762054443], [-0.13388779759407043, -0.34845131635665894, 0.8157406449317932, 0.20783782005310059, -0.5333470106124878, 0.5141423940658569, -0.8479187488555908, 0.7439889907836914, 0.15231461822986603, 0.6465978026390076, -0.5078027248382568, 0.7976551055908203, -0.4574037194252014, -0.4819812774658203, 0.7101567387580872, 0.3291880488395691, -0.9672277569770813, 0.42334920167922974, 0.00812322087585926, 0.16239246726036072, 0.7991491556167603, 0.471994549036026, 0.703971803188324, 0.6036989092826843, -0.5316808819770813, 0.5406471490859985, -0.4434320628643036, -0.5649912357330322, -1.5026977062225342, 0.45487651228904724, 0.3785727620124817, 1.3162723779678345, -0.11609016358852386, 0.7899163961410522, 0.1972355991601944, 0.10945022851228714, -0.704934298992157, 0.613911509513855, -0.5176145434379578, 0.2794664204120636, -0.06669104844331741, 0.019624266773462296], [-0.25092682242393494, 0.3185403645038605, -0.18004778027534485, 0.7570071220397949, -0.8057560324668884, 1.2375093698501587, -0.2167561799287796, 0.7041539549827576, 0.2589341700077057, 0.16640999913215637, -0.606063961982727, 0.7189745903015137, 0.10661903768777847, -1.4409239292144775, -0.3156207203865051, -0.48709675669670105, -0.13247020542621613, 0.4659980535507202, 0.18628954887390137, -1.2431457042694092, -0.014726734720170498, 0.4347253739833832, 0.6667944192886353, -0.5588677525520325, -0.7518930435180664, 0.0926755964756012, 0.017660675570368767, 1.2975058555603027, -1.146207571029663, 0.24263958632946014, 0.0673690065741539, 0.06930719316005707, -0.37339264154434204, -0.03844679519534111, 0.5485185980796814, 0.9056255221366882, -1.0003283023834229, 0.36522963643074036, -0.8431806564331055, -0.2364383190870285, 0.6093478202819824, 0.3287857174873352], [-0.5782232880592346, -0.4182974398136139, 1.2281328439712524, 0.15849578380584717, -0.47169730067253113, -0.014760106801986694, 0.6989938616752625, 0.6473398208618164, -0.2674974203109741, 0.2568238079547882, -1.2738817930221558, 0.19563713669776917, -0.6142488718032837, -0.4115733206272125, 0.22306539118289948, -0.5835962295532227, -0.23090243339538574, 0.4341350793838501, -1.0315055847167969, -0.4352979362010956, 0.5002881288528442, -2.06884503364563, 0.1692943125963211, -0.8159334659576416, -0.2689245045185089, 0.762168824672699, 0.05928751826286316, -0.22909969091415405, -1.5007679462432861, 1.1210834980010986, -0.25466063618659973, 0.8240009546279907, 0.5952247977256775, 0.38595420122146606, -0.016507528722286224, -0.6989354491233826, -0.16858583688735962, 1.219024658203125, -0.24503031373023987, -0.26171228289604187, -0.059697575867176056, 0.7719637751579285], [-0.5851963758468628, 0.3758709132671356, 0.7208933234214783, 1.4342865943908691, 1.507237434387207, 0.22370947897434235, -0.26905304193496704, 1.100889801979065, 0.8420705795288086, -1.4758758544921875, -0.9183226227760315, 0.14140106737613678, -0.28700849413871765, -0.5918610692024231, -0.31509268283843994, -0.24088072776794434, -0.5439475774765015, 1.05112624168396, 0.1530003398656845, 0.4252490699291229, 0.5757198929786682, -0.0075467489659786224, 0.007762867026031017, -0.6601959466934204, -1.0947405099868774, 0.45861127972602844, -0.055499229580163956, -0.3535086512565613, 0.012562273070216179, 0.7240403890609741, -0.2704091966152191, 0.4670747220516205, -0.5648570656776428, -0.1859319508075714, -0.5101642608642578, 0.7820978760719299, 1.166762113571167, -0.6140230894088745, -0.03811773285269737, 0.15197701752185822, -0.9837660789489746, 0.4626927077770233], [-0.25214630365371704, -1.1183421611785889, -1.3491309881210327, 0.33714038133621216, 0.9516498446464539, 0.17019939422607422, -0.4953805208206177, 0.49713388085365295, -0.11981774121522903, 1.1576156616210938, 0.1635981798171997, 0.11361316591501236, -0.11953036487102509, 0.637288510799408, 0.7921869158744812, 0.032599326223134995, -0.8216003179550171, 0.9395139217376709, 0.10810596495866776, -1.1304595470428467, 0.6530224084854126, -0.5037516951560974, -0.6329341530799866, -1.0035996437072754, -1.1367381811141968, 0.46441760659217834, 0.15549573302268982, 0.18722783029079437, -0.20176364481449127, 1.6311774253845215, 0.3986507058143616, -0.1117800697684288, 1.363176941871643, -0.7851184010505676, -1.77398681640625, 0.9097276329994202, -0.5562027096748352, 1.0937433242797852, 0.740436315536499, 0.816864013671875, -0.785738468170166, 0.8238335847854614], [0.22529426217079163, 0.7003348469734192, -0.13384753465652466, 0.2693083584308624, -0.35858532786369324, -0.25067710876464844, -0.5609170794487, -0.4509768486022949, -1.4694162607192993, 0.8085948824882507, -0.023492950946092606, 0.6699508428573608, -0.9868212342262268, -0.3184702694416046, 0.2551928460597992, 0.9931764006614685, 0.5316702723503113, 0.6012671589851379, -0.6711075901985168, -0.40801680088043213, 1.0781104564666748, 0.33031344413757324, 1.037062644958496, -0.15979978442192078, -0.7145162224769592, 0.0975591242313385, -0.9364310503005981, -0.1895647943019867, -0.9039444327354431, 0.5719512104988098, 0.19833746552467346, 0.3497817814350128, 0.6730838418006897, 0.09758943319320679, 0.64560866355896, 0.5434293746948242, -0.16272178292274475, -0.10331671684980392, 0.7335147261619568, -1.3617433309555054, 0.5147156715393066, 0.6927593350410461], [-0.46038246154785156, 1.106247067451477, 0.8074173331260681, 0.4680493474006653, 0.2389325052499771, 0.13869021832942963, 0.20102326571941376, 0.04588020592927933, -0.07792718708515167, 0.1371787041425705, -0.8211867809295654, 0.6509658694267273, -0.9440993070602417, 0.756220817565918, 1.516434669494629, -1.1013187170028687, -0.20002856850624084, 0.5550238490104675, 0.21364453434944153, -0.49890297651290894, -0.16970990598201752, -0.2730632722377777, 0.6235587000846863, 0.08696477860212326, -0.14590302109718323, 1.1178697347640991, 0.4262503683567047, -0.09824048727750778, -1.0436018705368042, 0.08885475993156433, -1.4016543626785278, 0.1667407900094986, 1.7188646793365479, -0.6905006766319275, 0.07549116015434265, 0.5382539629936218, -1.0346696376800537, 0.5814363956451416, -0.5752719640731812, -0.30417999625205994, -0.8817231059074402, -0.3999188244342804], [-0.7941166162490845, -0.5532463788986206, -0.36995112895965576, 0.0243541207164526, -0.5675978064537048, 0.21579258143901825, -0.32024410367012024, 0.4825446605682373, 0.3021833598613739, -0.6894318461418152, -0.06788615882396698, -0.42962446808815, -0.2793477773666382, 0.23649020493030548, 1.1070635318756104, -0.43397247791290283, -0.7957220077514648, 0.7219474911689758, 0.35968565940856934, -0.8663979768753052, 1.0632473230361938, 0.7228906154632568, -0.45573389530181885, 0.11372190713882446, -0.5761578679084778, 0.7095618844032288, -0.28497588634490967, 0.9441350698471069, -0.9504960775375366, 0.7345550656318665, 0.4504691958427429, 1.509775161743164, 0.46790504455566406, 1.4211933612823486, 0.7829706072807312, 0.9805507659912109, 0.04847439378499985, -1.617642879486084, 0.014705630019307137, 0.957615852355957, 0.8798906803131104, -0.9742957353591919], [0.18569473922252655, 2.4688663482666016, -0.5565720200538635, -0.3329845368862152, 0.6549012064933777, 1.179628610610962, 0.31415730714797974, 0.343389093875885, 0.5299791693687439, 0.5551637411117554, -0.7444751262664795, -0.024609390646219254, -0.09619226306676865, -1.6715880632400513, -0.28092631697654724, 0.4216655492782593, -1.1537294387817383, 0.39662545919418335, 0.2567369043827057, -0.36646580696105957, 0.22499358654022217, 0.9327684640884399, 0.7924050688743591, -0.19487492740154266, 0.015317589044570923, 0.3977135121822357, -1.2970315217971802, 0.35854628682136536, -0.6286762952804565, 0.7178114056587219, -0.43481680750846863, 1.0238438844680786, -0.19707299768924713, 0.10899358987808228, 0.480783075094223, 0.266422301530838, -1.126097559928894, -0.1887720674276352, -0.6482759714126587, -0.8365063667297363, -0.01007008831948042, -0.3273153603076935], [-1.3874815702438354, 0.8885890245437622, -0.6734736561775208, 0.2549435496330261, 0.45412033796310425, 0.6974037885665894, 0.3039509356021881, 0.43846699595451355, -1.1704847812652588, 1.0886445045471191, -1.2393560409545898, 0.0818103775382042, -0.9021480679512024, 1.3931455612182617, -0.5352989435195923, -0.5638604760169983, 1.421883463859558, 0.5489998459815979, -0.31288352608680725, -0.7820519804954529, 0.4555824100971222, -0.8102347254753113, 0.6710556149482727, -0.5294132232666016, -0.22464518249034882, 0.2984132170677185, -0.15752717852592468, -0.45585545897483826, -0.08943953365087509, 0.8708117008209229, -1.8009121417999268, -0.3565078377723694, 0.42977121472358704, -0.6649761199951172, -0.07225663214921951, 0.11266090720891953, -1.1396369934082031, 0.9766767024993896, -0.07137240469455719, 0.4334765374660492, 0.9711205959320068, 0.2526964843273163], [0.6047227382659912, 0.030893633142113686, 0.708845853805542, 1.0168020725250244, 1.5059940814971924, -0.06762169301509857, -0.24557523429393768, 1.2681641578674316, -0.04602682590484619, -2.332618474960327, -0.38226765394210815, 0.627950131893158, -0.9219923615455627, -0.5191960334777832, -0.5365553498268127, 0.21592848002910614, 1.196846604347229, 0.744329571723938, 1.0730617046356201, 0.4218257963657379, 0.27985426783561707, -0.31723204255104065, -0.8176107406616211, -0.39693140983581543, -1.055834412574768, 0.4727916419506073, -0.5935726761817932, 0.44452589750289917, -1.1674389839172363, 0.7974953055381775, -0.7453592419624329, 0.9513786435127258, -0.22288329899311066, -0.7077093124389648, -0.0039025270380079746, 1.0708850622177124, 1.4093279838562012, 0.5532782077789307, 0.07995019853115082, -0.03565801680088043, -0.0036033152136951685, -0.4720877408981323], [0.3354891836643219, -0.8027681112289429, -0.8430564999580383, -0.47065484523773193, -0.5127302408218384, 0.6690170168876648, 0.2736351490020752, 0.8005708456039429, -0.4586308002471924, 0.7754145860671997, -0.5873240232467651, 0.5150973796844482, -0.947207510471344, -0.2203989177942276, -0.058262135833501816, 0.7118049263954163, 0.5238113403320312, 0.47932368516921997, -0.09468328207731247, -0.8883032202720642, 1.4775809049606323, -1.125300645828247, 0.12140269577503204, -1.0670254230499268, -0.5358319878578186, -0.11872366815805435, -0.09196481108665466, -0.005273053888231516, -0.7608317136764526, 2.0081493854522705, -0.031866807490587234, 0.8327582478523254, -0.48528367280960083, 0.020372604951262474, -0.9296145439147949, 0.8912818431854248, -0.7315969467163086, -0.04765048250555992, 0.05085552856326103, 2.1954710483551025, -2.1844358444213867, 0.3492938280105591], [-0.9414451122283936, 0.6029651165008545, -0.8614234328269958, 1.054152011871338, 0.6002705097198486, -0.22060023248195648, 0.36293497681617737, 0.4841933250427246, -0.873185396194458, 1.355563759803772, -0.6031796932220459, 1.0184828042984009, -1.281426191329956, 0.5384817123413086, 0.45610353350639343, -0.19134609401226044, -1.0179328918457031, 0.7952642440795898, -0.6448606252670288, -0.5447088479995728, -0.2809655964374542, 0.41303133964538574, 0.65177983045578, 0.32779762148857117, -0.6015889644622803, 0.523171067237854, -0.8003174662590027, 0.05654085800051689, 0.4912538230419159, 0.6221484541893005, -1.1280179023742676, -0.3063200116157532, -0.6373564004898071, -0.14456145465373993, 0.8617492914199829, 1.5335019826889038, -0.12867550551891327, -0.22506390511989594, 0.16768811643123627, 0.8508670926094055, 0.32202020287513733, -0.5000477433204651], [0.3470740020275116, 0.6987519264221191, -0.9360441565513611, 0.6846661567687988, 0.4201054275035858, -0.13846169412136078, -1.4043110609054565, 0.6162418723106384, -1.7150113582611084, 0.7029118537902832, -1.2511167526245117, 0.4187074899673462, -0.6726621985435486, 0.2469756156206131, 0.46973973512649536, 0.7251513600349426, -0.34842678904533386, 0.7194463014602661, 0.30445340275764465, 0.7372538447380066, 1.1338529586791992, 0.2925144135951996, 0.8930978775024414, -0.24755291640758514, -1.533327341079712, 0.15459896624088287, -0.45488685369491577, -0.9616418480873108, 1.06462824344635, -0.11044566333293915, -1.0769996643066406, 0.5954318642616272, -0.3131782114505768, -0.5711368322372437, 1.3170181512832642, 0.9736846089363098, -0.8469364643096924, 1.1677327156066895, -0.018359025940299034, -0.28414806723594666, -0.32641908526420593, 0.6255225539207458], [0.21781037747859955, -1.0527032613754272, -0.006519964896142483, 0.9640270471572876, 0.7225567698478699, -0.4740837514400482, 0.06428031623363495, 1.399661660194397, 0.002253131242468953, 0.6657450199127197, -0.511857271194458, -1.0133426189422607, 0.47876405715942383, 0.1167835146188736, 0.5272617936134338, 1.2075880765914917, -0.24918591976165771, 0.8018015027046204, 0.8614457249641418, 0.28437483310699463, -0.5602215528488159, 0.14900492131710052, 0.7514544725418091, 0.9356476068496704, -1.0576326847076416, 0.5253443121910095, 0.48332756757736206, -0.7482757568359375, -0.8171976804733276, 0.8211050629615784, -1.0623738765716553, 1.6853522062301636, 0.6752298474311829, -1.2814451456069946, 0.49961474537849426, 0.8361639380455017, -1.2328661680221558, -1.1722561120986938, 0.936600387096405, -0.015200721099972725, -1.114206314086914, 1.0172520875930786], [-1.1338341236114502, 1.5890965461730957, -1.3140125274658203, 1.4915142059326172, -0.7458167672157288, -0.9264095425605774, 0.35246679186820984, 0.6737820506095886, -0.9333057999610901, 0.23208676278591156, -0.3497258722782135, 0.5485461354255676, -0.5690169930458069, -1.4373756647109985, -0.08171588182449341, 1.2522200345993042, 0.23936311900615692, 0.6025798916816711, -0.05163063481450081, -0.3516329824924469, 0.9094106554985046, -1.1690802574157715, 0.6530554294586182, 0.0631658211350441, -0.025246087461709976, 0.8998932242393494, -0.5614252686500549, 0.8942896127700806, -0.03982320427894592, 0.7324535250663757, 0.3201585114002228, 0.3196990489959717, 1.565873622894287, -0.9322546124458313, 0.09870217740535736, -0.15185664594173431, 0.23732079565525055, 0.22341634333133698, -0.86726313829422, -0.14307959377765656, 0.5044716000556946, -0.9184473752975464], [0.5786666870117188, 0.17576825618743896, 0.4717245399951935, 0.49103543162345886, 0.7472765445709229, 0.18404030799865723, -0.12021274119615555, -0.09180247038602829, -0.04508659616112709, -0.2783612012863159, -1.7121690511703491, -1.0555450916290283, 0.13093680143356323, 1.0077458620071411, 0.386466383934021, -0.40289047360420227, -0.503002405166626, 1.1063235998153687, -1.4037004709243774, 0.0873197466135025, 1.4134899377822876, -1.6763215065002441, 2.2817542552948, 0.321776807308197, -0.30406343936920166, 0.7940428256988525, 0.9135227203369141, 0.5065226554870605, 0.506449818611145, 0.6610268950462341, -1.1751312017440796, 1.4777344465255737, -1.1128402948379517, -0.941154420375824, -0.10528092831373215, -0.17184007167816162, -1.2825815677642822, -0.11233965307474136, 0.1074446439743042, -0.9126856923103333, 0.7792388796806335, 0.04150157794356346], [0.016344889998435974, 0.1277281790971756, -0.09675391018390656, -0.69977205991745, 1.3916131258010864, -0.6214690208435059, 0.34431806206703186, 0.08965996652841568, -0.5707687735557556, -1.4202057123184204, -0.5267363786697388, -0.4302237927913666, -0.5781041383743286, -0.3401930332183838, 0.47123849391937256, 1.0656383037567139, -1.2716752290725708, 1.0044968128204346, 0.7416459321975708, -0.14668917655944824, 1.0311201810836792, 1.062164068222046, 1.2139267921447754, -2.233597993850708, -0.8014017939567566, 0.3024902045726776, 0.5659672617912292, 0.3419896960258484, 0.14434751868247986, 1.7277116775512695, -0.27779021859169006, 0.11813397705554962, -0.11657324433326721, -1.0786006450653076, 0.15254487097263336, 0.6269022822380066, 0.41391855478286743, -0.8467646837234497, -0.46416789293289185, 0.31570863723754883, 0.16511429846286774, -1.058908224105835], [0.816811203956604, -0.1261471062898636, 0.7511423826217651, 0.7277254462242126, 1.4763667583465576, 0.1804252415895462, 0.17379961907863617, 0.44257330894470215, -1.7267179489135742, 0.30450698733329773, -0.9346351027488708, -1.4374666213989258, -1.4036865234375, -0.9357856512069702, 0.26844069361686707, -0.9978101253509521, 0.1603563278913498, -0.42071273922920227, -0.2856946289539337, -0.46194949746131897, 1.2259974479675293, -1.1348628997802734, -0.47319427132606506, -0.508690595626831, -1.4880690574645996, -1.0907455682754517, 0.6443983912467957, 2.39853835105896, 0.33210664987564087, 1.3011356592178345, 0.21124529838562012, -0.3928203880786896, 0.46323689818382263, -1.3691471815109253, -1.0489672422409058, 1.7876194715499878, -0.2709260582923889, -0.9372186064720154, 0.1356884241104126, -0.12507258355617523, -0.023305743932724, -0.8939657807350159], [1.2691220045089722, 1.0356558561325073, -0.7174900770187378, 1.0855380296707153, 1.8421550989151, 0.18321609497070312, 1.0715084075927734, -0.6103739738464355, -0.7809395790100098, 0.7423631548881531, 9.320984099758789e-05, -0.18983323872089386, -0.5394276976585388, -0.11946479231119156, 1.730833888053894, -0.08819054067134857, 0.57867032289505, 0.13354331254959106, -1.8739123344421387, -1.175819993019104, 1.4188387393951416, -1.0715458393096924, 1.029123067855835, -0.40589240193367004, -0.5906508564949036, -0.20048843324184418, -0.11637319624423981, 0.1590649038553238, -0.7626636028289795, 0.7770465612411499, -1.5230926275253296, -0.3920206129550934, -0.28239527344703674, -0.2813309133052826, 0.9800230860710144, 0.3076498508453369, -1.6849842071533203, -0.34317371249198914, 0.14282111823558807, 0.35576245188713074, 0.9528713226318359, 1.4885966777801514], [0.28420746326446533, 0.5895700454711914, 0.5588952302932739, 0.6737723350524902, -0.3286285996437073, -0.3534894287586212, 0.11997312307357788, 1.0845494270324707, -0.9297702312469482, -1.2939530611038208, -1.3134071826934814, 1.3360134363174438, -1.1441199779510498, 1.2833900451660156, 1.4638901948928833, -0.014936907216906548, 0.14774619042873383, 1.040781855583191, -0.2601183354854584, -0.7821900248527527, -0.04990196228027344, -1.1186226606369019, 1.7474101781845093, -0.21748828887939453, -0.5667446851730347, 0.0288697499781847, 0.13287405669689178, -0.8475373983383179, 0.5945088267326355, 0.12795934081077576, -0.8782762289047241, 1.0896601676940918, 0.45895591378211975, -0.0783059224486351, -0.37864792346954346, 1.3476834297180176, -0.18593628704547882, -1.4926060438156128, 0.06755691021680832, 1.2954269647598267, -0.1085553988814354, -0.2963428199291229], [0.20962250232696533, 0.4083559811115265, -0.05231884866952896, 0.16678191721439362, 1.3033956289291382, -0.3737708330154419, -0.4674695134162903, -0.3274446725845337, -2.6451239585876465, 0.3210580348968506, -0.6591396331787109, 0.24929441511631012, -0.3432997763156891, -1.1929492950439453, 0.32312333583831787, 0.17339952290058136, 0.06259796768426895, 1.36960768699646, -0.9919227361679077, -1.0309288501739502, 1.527933955192566, 0.17280754446983337, 1.9036391973495483, -0.11920270323753357, -0.7916239500045776, -0.9482179284095764, -0.18118101358413696, 0.44816240668296814, -0.19596464931964874, -0.048838868737220764, -0.35956743359565735, 0.272713303565979, 1.5492833852767944, -0.8784007430076599, -1.074906826019287, 2.029313087463379, 1.187665581703186, -0.4349238872528076, 0.5920601487159729, 0.8819908499717712, 0.8103118538856506, 0.32752037048339844], [-0.6236588954925537, -0.16408111155033112, -1.4485535621643066, -0.0010161111131310463, 1.0157439708709717, -0.013574614189565182, 1.267202615737915, 1.50912344455719, 0.4232187569141388, 0.661083996295929, -0.19617237150669098, 0.8652346730232239, -0.798412024974823, -0.30907902121543884, -0.028327103704214096, 2.158991813659668, 0.23043814301490784, 0.41351911425590515, -1.3021851778030396, 0.24634531140327454, 0.23229974508285522, 0.4699316620826721, 1.0460854768753052, 0.04832464084029198, -0.601855993270874, 1.0705790519714355, -1.4248770475387573, 0.9635238647460938, 0.39781415462493896, 1.572485089302063, -2.39758563041687, -0.013420077040791512, -0.47486573457717896, 0.0572567917406559, 0.5680599808692932, 0.6716983914375305, -0.24004727602005005, 0.4481009244918823, 0.46216028928756714, 0.8771482706069946, 0.20271837711334229, -0.645371675491333], [0.7849755883216858, 1.2411731481552124, -1.183760643005371, 1.4843086004257202, 0.09243176132440567, -0.5832597613334656, 1.6744105815887451, 0.2633918821811676, -0.5615154504776001, 0.6233490705490112, -0.23576901853084564, 0.1848755180835724, -0.24394819140434265, -0.3373013138771057, -0.9042970538139343, 0.6648210287094116, -0.753910481929779, -0.12555299699306488, -1.0050090551376343, -0.5689713358879089, 0.6312884092330933, -0.8021222352981567, 0.8576047420501709, -2.0734190940856934, -0.7792244553565979, 0.6800631880760193, -1.1398582458496094, -0.01364351436495781, 0.19527789950370789, 0.0037747931201010942, -1.4109865427017212, 1.8644407987594604, 0.12751716375350952, 1.035587191581726, -0.963062047958374, 0.5842736959457397, -1.101678729057312, -0.09070054441690445, -1.4767649173736572, 0.7410508990287781, -0.6033905148506165, 0.2471010535955429], [-0.15299992263317108, 0.33321353793144226, -1.8122293949127197, 0.9526340365409851, 0.5939175486564636, 0.3260463774204254, 0.023558571934700012, 0.6741049289703369, 0.0870601162314415, -0.11266092956066132, -1.302099585533142, 1.445845127105713, -1.4925048351287842, 1.0212125778198242, 0.6837831735610962, -0.9076972603797913, 0.2511219084262848, 0.8965268731117249, 0.8450034260749817, -0.35021209716796875, 0.7739689350128174, -1.3218891620635986, 0.31592464447021484, 0.5850324034690857, 0.12112868577241898, 0.7353233098983765, 0.05487716943025589, -0.6637130379676819, 0.7209694385528564, 0.925910234451294, -0.7599791288375854, 0.9309131503105164, 0.20644615590572357, -0.4900345504283905, -0.2689937949180603, 1.2692145109176636, -1.7752174139022827, 0.22723667323589325, -1.4399545192718506, -0.4057580530643463, -2.0189096927642822, -1.8189115524291992]]]], [[[[-0.2213771939277649, -0.04449902102351189, -0.36118894815444946, 0.3359496295452118, -0.9987459182739258, -0.18175330758094788, -0.10408512502908707, -0.16163121163845062, -1.0875355005264282, -1.0344562530517578, 0.8164749145507812, -0.4101942479610443, 0.6866200566291809, -0.4237184524536133, -0.3422282040119171, -0.14189770817756653, -0.8661020398139954, 0.14696192741394043, -0.0865056961774826, 0.41386884450912476, -0.0006519423332065344, -0.6433721780776978, -0.16996031999588013, -0.3719503879547119, 1.026723861694336, -0.3123244643211365, -0.42691266536712646, -0.22508016228675842, -0.47521016001701355, 0.6020966172218323, -0.16942958533763885, 0.6024194955825806, -0.6479656100273132, -0.04367290437221527, 0.10662733018398285, 0.6069443821907043, -1.079680323600769, -1.3661240339279175, 0.342963844537735, -0.9411658644676208, -0.8104633688926697, 0.47520044445991516]]]], [[[[0.6913621425628662, -0.29112333059310913, -0.12523825466632843, 0.9656128287315369, 0.6422728300094604, 0.07867637276649475, 0.10360655933618546, -1.4055020809173584, -0.20986945927143097, 0.9220160841941833, -0.3342641592025757, -0.8903276324272156, -0.9283262491226196, 0.5720199942588806, 0.4530694782733917, -0.48723411560058594, 0.528118371963501, 1.4809186458587646, -0.985808253288269, -0.08290274441242218, -0.8859388828277588, -0.44731488823890686, -0.7472533583641052, -0.10626621544361115, -0.13965246081352234, -0.8756987452507019, -0.8629938960075378, 0.19137170910835266, 0.8414447903633118, -0.38786110281944275, -0.19935011863708496, 1.3677977323532104, 0.9520667195320129, -0.2433871328830719, -1.0887614488601685, 0.6173814535140991, 0.12767106294631958, -0.667853832244873, -0.03416525945067406, 0.48425203561782837, 0.6764705181121826, 0.6485529541969299], [-0.5004280209541321, 0.2317051887512207, -1.0833033323287964, -0.5284092426300049, -0.06751160323619843, 0.8780089616775513, 0.0020452954340726137, 0.24396876990795135, 0.6294634342193604, 0.08753843605518341, 0.5277619361877441, 0.4296793043613434, 0.5700540542602539, 0.0640406608581543, -1.3580667972564697, -0.6965024471282959, 0.25942403078079224, 0.6963695287704468, -0.03093569725751877, 0.5591808557510376, -0.08964131027460098, 0.5421497225761414, 0.31176841259002686, 0.8085036277770996, -1.9414288997650146, 0.3428775370121002, 0.42921867966651917, -0.08766434341669083, 0.040909573435783386, 0.9794600605964661, -0.4710839092731476, -0.049070559442043304, -0.08475293219089508, -1.626444935798645, -0.9964264035224915, -0.4148791432380676, 0.8134027123451233, -0.8771159648895264, -0.20873118937015533, -0.27814871072769165, 0.6861429214477539, -0.4643871784210205], [-1.2851767539978027, 0.04394111409783363, -0.06891907751560211, 0.5284079313278198, 0.11505882441997528, -0.5510499477386475, -0.09272364526987076, -1.035573124885559, -0.818973958492279, -0.9266377091407776, -0.2892366647720337, -0.06597074121236801, -0.0573449432849884, 0.6007588505744934, 0.02503751590847969, 0.7431613802909851, 1.0840169191360474, -0.15655875205993652, -1.2442539930343628, 0.6119885444641113, -0.011163119226694107, -0.06300172954797745, -0.2914551794528961, -0.7628697156906128, -0.31770408153533936, 0.34973999857902527, 0.7423209547996521, -0.4002547562122345, 0.29208308458328247, 1.068129301071167, -0.76002436876297, -1.3114644289016724, -0.4263348877429962, -0.35725829005241394, 0.9827555418014526, 0.11544467508792877, 0.6946168541908264, 0.11175060272216797, 0.46974873542785645, 1.4472001791000366, -0.32053181529045105, 1.1585110425949097], [-0.8695985078811646, 0.13333408534526825, -0.7974129915237427, -0.36752983927726746, 0.7410240769386292, 0.6778818368911743, -0.6338655352592468, -1.0460261106491089, 0.5752339959144592, 0.5683031678199768, 0.6877408027648926, 1.2303762435913086, -0.09209990501403809, -0.6621156930923462, -0.7202815413475037, -1.3673357963562012, -1.3790061473846436, -1.198867678642273, -1.1248036623001099, -0.2337702512741089, 0.10161155462265015, 1.1087149381637573, -0.17720641195774078, -0.3764420747756958, -0.8343886137008667, -0.24198533594608307, 0.1462518572807312, -0.7800427079200745, 0.29719898104667664, 0.41673025488853455, -0.1971481591463089, 0.7157584428787231, 0.5070553421974182, -0.32589706778526306, 0.182957723736763, 0.5905591249465942, -0.1883406937122345, -0.14729280769824982, -0.018874384462833405, 0.20998798310756683, 0.27704697847366333, -0.19408383965492249], [-0.3063511252403259, 0.010714643634855747, -0.0900876447558403, -1.1093101501464844, -0.06024319678544998, -1.3404945135116577, -0.05143153667449951, 0.9725380539894104, 0.2610427737236023, 0.1987329125404358, 0.8349363803863525, -1.0663540363311768, 0.5131285190582275, -0.49834150075912476, 0.22032015025615692, 0.3080749213695526, -0.2740232050418854, -0.5481504797935486, -0.8160039782524109, -0.9029679298400879, 1.0742835998535156, 0.19657383859157562, -1.854132890701294, -0.2674935758113861, -0.9985608458518982, -0.39746227860450745, -0.6288864016532898, 1.0086098909378052, -0.11230362206697464, 0.589068591594696, 0.4871766269207001, 1.1224557161331177, 0.07719817757606506, -1.39524507522583, -0.92741858959198, 0.1646469533443451, -0.059254225343465805, 1.0733282566070557, 0.08936461061239243, -0.14763960242271423, 0.795923113822937, 0.6692793965339661], [-0.40645742416381836, -0.6620352268218994, -0.9047648906707764, -0.2012321949005127, 0.4711267650127411, 0.19454072415828705, 0.6709908843040466, -0.03790178522467613, -0.18821832537651062, -0.9300678372383118, -1.389235019683838, -1.946860909461975, 1.1113275289535522, -1.1496559381484985, 0.2975080609321594, -0.7686685919761658, 1.5226540565490723, -0.6123207211494446, 0.5018665790557861, 0.2711385190486908, -0.5768518447875977, 0.8275197148323059, 0.891106128692627, 0.0987030491232872, 0.23098939657211304, 0.729702353477478, 0.38820526003837585, -0.1570890098810196, 0.36862295866012573, 0.7438995242118835, -0.42030298709869385, -0.06686125695705414, 0.5092577934265137, 0.31419458985328674, 0.6950905919075012, -0.3723302185535431, -0.030672909691929817, -0.007351819891482592, 0.4212925434112549, 0.6166093349456787, -0.4546721577644348, 0.5010113716125488], [0.34944772720336914, 0.35154759883880615, -0.23593494296073914, -0.8551148772239685, -0.468111127614975, -0.32451459765434265, 0.20604099333286285, -0.7399551272392273, 0.974057137966156, -1.1711599826812744, -0.32774120569229126, -0.17813168466091156, 0.4576101005077362, 0.043923407793045044, 0.09287150949239731, -0.7661645412445068, 0.187296524643898, 0.6434401869773865, -0.36712905764579773, -0.5747571587562561, -0.6386535167694092, -0.7201576232910156, 0.428067147731781, 0.5063974261283875, -0.6409199237823486, 0.9609562754631042, -0.4110906422138214, -0.471533864736557, 0.31170400977134705, 0.4627777636051178, -1.3059961795806885, 0.052007462829351425, 1.1275562047958374, 0.9026572704315186, -1.3340901136398315, 0.8540576696395874, -0.7925850749015808, 0.6169829964637756, 0.2402973473072052, 0.6251400709152222, 0.005242098588496447, 0.47954118251800537], [-0.2353975772857666, 0.8554612398147583, -2.072815418243408, 0.2967875599861145, -0.7044110894203186, 0.8743256330490112, -0.8673720955848694, 0.015412762761116028, -0.18761801719665527, -0.47103509306907654, 0.3500904440879822, 0.1643214076757431, -1.6145625114440918, -0.2057775855064392, -0.15203525125980377, 0.33589088916778564, -0.8779853582382202, -1.1796241998672485, -0.40818077325820923, -1.0479354858398438, 0.3759225010871887, 0.5782488584518433, -0.9211300611495972, 0.13127510249614716, -0.516478419303894, -0.7748889327049255, -0.38623756170272827, 0.48943984508514404, 0.9690369367599487, 0.41605979204177856, 0.8864194750785828, 0.1677735149860382, 0.5854182243347168, 0.41552916169166565, 0.16440142691135406, 0.24679775536060333, -0.2503400444984436, -0.502564549446106, -0.15066835284233093, -0.0026469375006854534, -0.38413047790527344, 0.5840478539466858], [0.6852570176124573, -0.9535852074623108, -0.33212441205978394, 0.5439558625221252, 1.5945485830307007, -0.8046626448631287, -0.2732773721218109, 0.5542925000190735, 0.3061642050743103, 0.5615894794464111, -1.0551074743270874, -1.1116560697555542, 1.0117793083190918, -0.31630709767341614, -0.1064186543226242, 0.5503643751144409, 0.4865555465221405, -0.09327943623065948, -0.14114931225776672, 0.22257059812545776, -0.20706656575202942, -0.3396108150482178, -0.6488581895828247, 0.8600888252258301, 0.7381687760353088, -1.0189392566680908, 0.970749020576477, -0.5343103408813477, 0.5097999572753906, -1.3728691339492798, 0.019966715946793556, 1.5456053018569946, 0.05278888717293739, 1.1234050989151, 0.5190096497535706, 0.22178193926811218, -0.23465414345264435, 0.8061284422874451, -0.16388462483882904, -0.6747008562088013, -0.15944652259349823, -0.3225334882736206], [-0.7235680222511292, -1.105664610862732, -0.20772510766983032, 1.076779842376709, -1.0451935529708862, -0.539448618888855, 0.28102970123291016, -0.56095951795578, -0.15076932311058044, -0.4273659586906433, 0.46644327044487, -0.6035934686660767, 1.066433072090149, 0.1818169802427292, 0.4063723385334015, 1.0294976234436035, -0.5744646787643433, 0.4708239734172821, -0.29240742325782776, -0.5488880276679993, 0.8153324723243713, -0.039879221469163895, -2.365974187850952, -0.31613069772720337, -0.9252466559410095, 0.6847870945930481, 0.42655113339424133, -1.1526103019714355, -0.3392584025859833, 0.9763684272766113, 0.8611685633659363, 0.6528335213661194, 0.504702091217041, -0.31374940276145935, 0.33465269207954407, -0.2985536456108093, 0.24458321928977966, 0.0003352736821398139, 1.2571874856948853, -1.9991300106048584, 0.5957465171813965, 0.7946653366088867], [0.15648725628852844, 0.05817831680178642, 0.1304009109735489, -0.043851207941770554, -0.6783265471458435, 0.14507608115673065, 1.1600290536880493, -0.6827089190483093, 0.6796594858169556, -0.40815308690071106, 0.024340501055121422, 0.028169997036457062, 0.17669636011123657, -0.4571550190448761, 0.9694300293922424, -0.2066817730665207, 1.0098743438720703, -0.28275132179260254, -0.4677251875400543, 0.694364607334137, 0.05627087131142616, -1.0437778234481812, -0.7230103015899658, -1.965930461883545, -0.5699405670166016, -1.5738842487335205, -0.06966498494148254, -1.4080122709274292, 0.7820010781288147, -0.40231651067733765, 0.43428337574005127, -0.6970316171646118, -0.9987149834632874, 0.1925344467163086, 0.17265698313713074, -0.2576867640018463, 1.0239505767822266, -0.29164496064186096, -0.07908382266759872, 0.5982933044433594, -0.20495767891407013, -0.7708671689033508], [-1.7341675758361816, 0.06671775132417679, 0.1300453394651413, -0.3255733251571655, -0.39121267199516296, 0.05166085064411163, 0.21062514185905457, -1.014060378074646, 0.6542456746101379, -1.7455646991729736, 0.6799513101577759, -0.31372198462486267, 0.5740553140640259, 0.5459374189376831, 0.5064141154289246, -1.4493399858474731, -0.3245804011821747, -0.607906699180603, -0.09093589335680008, 0.44867753982543945, 0.30023545026779175, 0.0022382664028555155, 0.7907388210296631, 0.1855659782886505, -0.37296614050865173, 0.37798550724983215, -0.6535261869430542, 0.23398832976818085, 0.33459317684173584, 0.7558310627937317, -1.349417805671692, -0.7434268593788147, 0.31932318210601807, 0.9987937211990356, 0.07634426653385162, 1.396780014038086, -0.031188609078526497, -0.05691187083721161, -0.3833952844142914, 0.6920766830444336, -0.848143458366394, 0.18838530778884888], [-0.7913042902946472, -0.3424786627292633, -0.1880064457654953, 0.4337370693683624, -0.8914262652397156, -0.7632019519805908, 0.5667850375175476, 0.9620972275733948, 0.6486718058586121, 0.6505683660507202, -0.8415903449058533, -0.9542732834815979, -0.176030695438385, 0.5339275002479553, 0.04748338460922241, 0.03560600429773331, 1.3747713565826416, -0.41649189591407776, -0.6554169058799744, 0.33523499965667725, 0.3678971230983734, -1.1519246101379395, 0.6287403702735901, 0.39724233746528625, -0.0749942734837532, -2.1768507957458496, 0.06549467891454697, -0.13945841789245605, 0.07793372124433517, 1.202206015586853, 0.8248960375785828, -0.6673628687858582, -0.45600399374961853, -0.5658316016197205, -0.025353925302624702, 0.5392652750015259, 0.6290072202682495, 0.9055641889572144, 0.45592841506004333, -0.2925712764263153, 0.655658483505249, -0.11930087208747864], [0.2842161953449249, -0.8791121244430542, -0.33034273982048035, -1.9374157190322876, 0.8123614192008972, 0.4092611074447632, -0.21532559394836426, -0.860598623752594, 0.4784310758113861, 0.2355814129114151, 0.7525862455368042, 0.13780248165130615, -0.7622654438018799, -0.7092962861061096, -0.05259513109922409, 0.3023829758167267, -1.173500657081604, 0.19661042094230652, -0.15178118646144867, -0.448688268661499, 0.25301921367645264, 0.7628592848777771, 0.5844818353652954, 0.3574488162994385, 0.511834442615509, -0.8605220317840576, 0.84177565574646, -0.43586182594299316, -1.3288058042526245, 0.5635454058647156, -0.0028274839278310537, 1.276337742805481, -0.017847441136837006, 0.6239801049232483, 0.9655475616455078, 0.02396295964717865, 0.6850264668464661, 1.3283311128616333, 0.524116575717926, 0.6728066205978394, -0.15354105830192566, 0.1894243359565735], [-0.3970443904399872, 0.37203025817871094, -0.6471147537231445, -0.6708773374557495, 0.02821694128215313, 0.6687663793563843, -1.0370533466339111, -0.8661221265792847, 0.43136361241340637, 0.5553014278411865, -0.36035704612731934, -0.3381572365760803, 0.12658019363880157, 0.8967801928520203, -0.5320771336555481, 0.11854104697704315, -0.2890426218509674, 0.5030643343925476, 0.15857751667499542, 0.12078796327114105, -0.3117852210998535, 0.24898092448711395, 0.6312873363494873, -0.8554481863975525, -1.2053751945495605, -0.5163525938987732, 0.14308162033557892, 0.3850134611129761, 0.0068011037074029446, -1.4506168365478516, 1.3576083183288574, 0.09663193672895432, -0.2786737084388733, -1.2076399326324463, 0.22467850148677826, -0.33891865611076355, -0.46206504106521606, 0.8820173740386963, -0.3267514407634735, -0.80764240026474, 0.6607068181037903, -0.019593583419919014], [0.7379150986671448, 1.2005510330200195, -0.13135288655757904, -0.35927027463912964, 0.6454681754112244, -0.9919654726982117, 0.1286880522966385, -0.21605563163757324, -0.05460430681705475, 0.7488987445831299, 0.08213965594768524, -0.34440141916275024, -0.5917205810546875, 0.26414135098457336, -0.36254191398620605, -0.80666184425354, -0.34928882122039795, -0.31771138310432434, 0.6539013385772705, 0.024812065064907074, -0.9041607975959778, 0.45177358388900757, 0.3952043950557709, -0.07485774159431458, 1.2602295875549316, -0.14202679693698883, -1.2113101482391357, -0.8665214776992798, -0.76851487159729, -0.7474515438079834, -0.5086432695388794, -0.36339303851127625, 0.6056115031242371, -0.5396317839622498, 0.4894481897354126, 0.6773106455802917, -0.19707423448562622, 0.20588767528533936, -0.06460456550121307, -0.7853568196296692, 0.3042827844619751, 0.3682693541049957], [-0.7226059436798096, -0.021724091842770576, 0.21805576980113983, 1.4537386894226074, -0.5553848147392273, -0.4324636459350586, 1.4792282581329346, -1.5642520189285278, 0.8377955555915833, 0.15302976965904236, 0.739363968372345, 0.5764756798744202, 0.6697454452514648, 0.963767409324646, 0.18356068432331085, -1.2370221614837646, 1.0909032821655273, -0.9310019612312317, 1.011942982673645, 0.6248428225517273, 0.6401664018630981, 0.6222995519638062, -0.41851285099983215, 0.6983216404914856, 0.33455610275268555, 0.6160174012184143, -0.8363708853721619, 1.143642783164978, -0.428547739982605, -0.37860411405563354, 0.4038947820663452, 0.056991852819919586, -0.6739716529846191, -0.09942331165075302, -0.8296677470207214, -0.9565427303314209, 0.3254108726978302, -0.25489574670791626, -0.775845468044281, 0.505314290523529, 0.44992420077323914, 0.49896836280822754], [-0.8776593804359436, 0.9898558259010315, 0.8270100355148315, 0.3553415536880493, 0.42803648114204407, 0.7387306690216064, -1.9036465883255005, -1.3762973546981812, 0.9385037422180176, 0.030867906287312508, 0.3871876895427704, 0.8547788262367249, 0.6756197810173035, -0.9811679720878601, -0.04614228382706642, 0.8062919974327087, -1.886320948600769, -0.4516199827194214, -1.3233532905578613, 0.2715803384780884, -0.6025453805923462, -0.42666634917259216, -0.3600998818874359, 0.32599520683288574, 0.7968016862869263, 0.9172548651695251, -1.621017575263977, -0.6201208829879761, 0.13657541573047638, 0.4667690098285675, -1.119676947593689, 0.7997856736183167, 0.7843086123466492, -0.2673031687736511, 0.37892550230026245, 0.28989699482917786, 0.20980916917324066, -0.4490549862384796, -0.7706502079963684, 0.15138140320777893, 0.2522438168525696, 0.39088621735572815], [-0.8466671109199524, -0.2108364850282669, 1.1256693601608276, -0.2401123046875, -0.4579434096813202, -0.16418839991092682, -0.37560704350471497, -0.8712277412414551, -0.38580504059791565, 0.4616895318031311, -0.7022226452827454, 1.0879199504852295, 0.07495662569999695, -0.31526246666908264, 0.6329877376556396, 1.478592872619629, -0.4010820686817169, -0.07987676560878754, -0.6037575602531433, 0.4575238525867462, -0.7853397130966187, 0.4655512571334839, -0.750856876373291, 0.16617825627326965, 0.427176833152771, -1.1707059144973755, 0.723752498626709, -0.16381916403770447, 0.5980303883552551, 0.4742145240306854, 0.35333284735679626, -0.814141035079956, 0.034400444477796555, -0.6209639310836792, -1.3068181276321411, 0.1565563976764679, 0.38321641087532043, 0.5056495666503906, 0.3392142951488495, -1.3508433103561401, -0.5321945548057556, 0.3952908515930176], [1.1073986291885376, 0.9614021182060242, -0.39020222425460815, -0.18189598619937897, 0.6384863257408142, 0.318032443523407, 1.2022331953048706, -0.03525659069418907, 0.03564370423555374, -1.184713363647461, -0.567953884601593, -0.594718873500824, 0.2508144676685333, 1.7050179243087769, -0.559734046459198, 0.21314889192581177, 0.06318897753953934, 1.1267062425613403, 0.2545347511768341, -0.6866629719734192, 1.0019099712371826, -0.10928643494844437, -0.5570836663246155, 0.5428749918937683, 0.05358321964740753, 0.057123344391584396, 0.2774071991443634, -0.4769635498523712, 0.48212289810180664, 0.004114994779229164, -0.054796017706394196, -1.1535627841949463, -0.6558853387832642, -0.1495567113161087, 0.5381507277488708, 0.6980347037315369, -1.0953675508499146, 0.4655591547489166, -0.4171716272830963, -0.4146762490272522, -0.41886216402053833, -0.290604829788208], [-1.2375727891921997, 0.687543511390686, -0.1541043221950531, 0.39328616857528687, 0.10283923894166946, 1.638774037361145, -0.1219714805483818, 0.5361530184745789, 0.7471500039100647, 0.20621418952941895, -0.5751746296882629, -0.29574042558670044, 1.1579173803329468, -1.101744294166565, 0.26157817244529724, -0.536886990070343, -0.34284383058547974, -0.5142707228660583, -0.13241569697856903, -1.1165050268173218, 0.9203140735626221, -2.1755101680755615, -0.18556788563728333, 0.7041590809822083, 0.929458498954773, -0.17682887613773346, -0.41362637281417847, -0.14111372828483582, 0.2758227288722992, 0.5417667031288147, 0.15486130118370056, -0.17144325375556946, 0.9825711250305176, -0.3426556885242462, 0.4103529453277588, 0.02689136564731598, 0.4518040120601654, 0.59580397605896, 0.9672026038169861, -0.9527122378349304, -0.16419094800949097, -0.16628611087799072], [-0.23953208327293396, 0.9454748034477234, 0.2740751802921295, -0.15259520709514618, 1.140066146850586, -0.09724092483520508, -0.21894223988056183, 0.027786623686552048, -0.5737336277961731, 0.981535017490387, -1.746976375579834, -1.2275404930114746, -0.452274352312088, -0.29836374521255493, 0.21641583740711212, -0.22606869041919708, -0.19657734036445618, -0.5749747157096863, 0.3798027038574219, 0.9930198788642883, 0.6248831152915955, -0.9108971357345581, -0.36818426847457886, -0.11770356446504593, 0.6191045641899109, -0.9419704675674438, -0.04199660196900368, -0.36918216943740845, -0.023458395153284073, -1.2605352401733398, 0.7435864806175232, 0.02323615550994873, 0.26657193899154663, 0.22638992965221405, -0.5656875967979431, 0.36387771368026733, -0.21135954558849335, -0.1835928112268448, 0.028284188359975815, -0.08750799298286438, -0.8896791934967041, -0.19811676442623138], [0.862850546836853, 0.04000084847211838, -0.4496196210384369, -0.29498499631881714, -0.5047858953475952, 0.14109808206558228, 0.30126869678497314, 0.17660191655158997, -0.861316442489624, 0.6551755666732788, 0.41434401273727417, 0.3686622679233551, -0.7700059413909912, -0.7179123163223267, 0.14437296986579895, -1.1860095262527466, -0.07951311767101288, -2.82979154586792, 0.12785401940345764, -0.6913827657699585, -0.775831937789917, -1.201183557510376, 0.9641691446304321, 0.7061324119567871, 0.26057302951812744, 0.35925325751304626, -0.1263502836227417, 0.5562798976898193, 0.10543540120124817, 0.6867159008979797, 1.4999048709869385, -0.07128775119781494, -0.5920937061309814, 0.018972795456647873, -0.4127705693244934, -1.2104414701461792, 0.23654037714004517, -0.22173196077346802, 0.7554733157157898, -0.5644993782043457, 0.1704079508781433, 0.9138014912605286], [1.1110966205596924, -0.5230544209480286, 0.6229467391967773, -0.19747495651245117, 0.8871320486068726, -0.5576918721199036, 0.3637057840824127, -1.2331767082214355, -0.5098391175270081, -0.5248135328292847, -0.24090445041656494, -0.9170069098472595, -1.8654398918151855, -0.7994605898857117, 0.8389745950698853, -0.024280430749058723, -0.013172317296266556, 0.10059107095003128, -0.3090583086013794, 0.4625175893306732, 0.9905002117156982, -0.4073150157928467, 0.2794741988182068, 0.623828649520874, -1.0706639289855957, 0.36243921518325806, -0.22378253936767578, -0.15908649563789368, 0.04226301610469818, -1.0015616416931152, -0.10698649287223816, -0.5345090627670288, -0.7218925356864929, -0.08528028428554535, 0.13951438665390015, 0.48629501461982727, -0.5368863344192505, 0.5499259829521179, 0.9343799948692322, 0.2658793032169342, -0.043367791920900345, -0.21724960207939148], [0.6225801706314087, -0.5877759456634521, 0.7262058854103088, -2.514852523803711, -1.0568797588348389, 0.269257128238678, 0.4425170421600342, 0.26696324348449707, -0.5588223934173584, -0.04791983217000961, -0.23107218742370605, 0.48623427748680115, -0.5710892677307129, 0.21671734750270844, -0.1127796396613121, 0.9308673739433289, -0.2575247585773468, -0.1580064743757248, 0.8890445828437805, 1.351428508758545, 0.13454720377922058, -0.0020298126619309187, 1.3190901279449463, -0.19880792498588562, 0.8313187956809998, -0.797921895980835, 1.0295969247817993, -0.027947142720222473, -0.6359779834747314, 0.27581658959388733, -0.10657606273889542, 0.09495589137077332, -1.4249550104141235, 0.9585724472999573, -0.04092809930443764, -0.5540375709533691, -0.00332020316272974, -0.161368727684021, -0.4009161591529846, 0.41103920340538025, 0.7158715128898621, -1.0124579668045044], [-0.5110284090042114, -0.342341810464859, -0.938863217830658, 0.806063175201416, 0.1171577051281929, -0.4809633195400238, 0.3198936879634857, 0.2706146538257599, -0.19466999173164368, -0.5438533425331116, 0.1677991896867752, 0.5368356704711914, -0.7616416215896606, -0.3448343276977539, 0.2171120047569275, -0.9975475072860718, 0.16547560691833496, -0.5184493064880371, 0.20851144194602966, 0.44460269808769226, -0.8360838890075684, 1.1988426446914673, -0.12280083447694778, 0.4931924045085907, -1.6587845087051392, 0.774722158908844, -1.0978577136993408, 0.3532198965549469, -0.8311036229133606, -0.7484278678894043, 0.11684072017669678, 0.07080681622028351, 1.2311618328094482, -1.774749517440796, 0.7624426484107971, 0.659935712814331, 0.7391627430915833, 0.43349871039390564, 0.6459771990776062, -0.5089661478996277, 0.1144750639796257, 0.08296556025743484], [1.1346118450164795, -0.6182754039764404, 0.628852128982544, -0.15197765827178955, 1.3403514623641968, 0.17944175004959106, 0.5364020466804504, 0.9417555332183838, -0.07792336493730545, -0.06175873428583145, 0.8815186023712158, -1.9435845613479614, -0.07720481604337692, -0.6179372072219849, 0.8210515379905701, 0.3001387417316437, 0.015493929386138916, -0.14551669359207153, -0.2654950022697449, 0.5452965497970581, -0.6379313468933105, 0.4322534501552582, -0.7207207083702087, -0.6224862337112427, -2.0048587322235107, 0.15665942430496216, 0.24842093884944916, -0.04522636532783508, 0.37247973680496216, 0.23084335029125214, -0.05175364017486572, 0.11603695899248123, -0.7652776837348938, 0.1770467311143875, -1.534771203994751, 0.29878363013267517, 0.006658583879470825, 0.3251132369041443, -0.5521951913833618, 1.0929096937179565, -0.05153188854455948, 0.16904126107692719], [-0.9429569840431213, -1.0444735288619995, -2.0968215465545654, -1.002771019935608, -1.3178973197937012, 0.12091031670570374, -0.09867075085639954, 0.6871751546859741, 0.4469081461429596, 0.9938787221908569, -0.3585488796234131, -0.8046798706054688, 0.40756484866142273, 0.8791303634643555, -0.9479103088378906, 0.5834755897521973, -0.5769213438034058, -1.4881958961486816, 0.4052698314189911, 0.28574293851852417, -0.64865642786026, -0.22030141949653625, -0.15154406428337097, 0.2748101055622101, 0.02808506228029728, -0.2943255305290222, -0.043597735464572906, -0.05069178342819214, 0.6658281683921814, -1.4527029991149902, -0.5012246966362, -0.47152334451675415, 0.45301955938339233, 0.9387094378471375, -0.9724399447441101, -1.6719826459884644, -0.759596049785614, 0.8529374003410339, -0.1634192317724228, -1.136283040046692, 0.19996008276939392, 0.33768218755722046], [0.39052700996398926, -0.08997058868408203, -1.199971079826355, -0.17883743345737457, 0.12999771535396576, -0.5257474184036255, 0.49354156851768494, 0.48115137219429016, -0.06503427773714066, -0.0762426033616066, 0.4284185469150543, 1.3808070421218872, 0.20174723863601685, 0.8485646843910217, 0.5891724824905396, 0.18501974642276764, 0.05156213790178299, 0.8893256783485413, -1.237078070640564, 0.6776600480079651, 1.0035197734832764, -0.04584074020385742, -0.5350411534309387, 0.08965431153774261, 0.00777307478711009, 0.9022587537765503, -0.4575466811656952, -0.6256070733070374, -0.555801510810852, 0.023331714794039726, -1.3327196836471558, -1.2150481939315796, 0.14866286516189575, -0.20225176215171814, 0.3879483640193939, -0.030808180570602417, 0.6088374853134155, -0.07676562666893005, 0.20288518071174622, 1.063082218170166, 0.9679532647132874, -0.5611999034881592], [-0.21086816489696503, 1.0494729280471802, 0.4877312481403351, -0.08433138579130173, 0.3244588077068329, -0.7257508635520935, -0.6187784671783447, -0.3461400866508484, 0.15877480804920197, -1.712064266204834, 0.004658096469938755, -0.3004377782344818, 0.4777804911136627, -0.795104444026947, 0.1566307246685028, 1.0382782220840454, -0.8574745059013367, 0.16348616778850555, -1.1720209121704102, 0.07826542109251022, -1.1498569250106812, -0.8660635352134705, 1.7591150999069214, -0.23225706815719604, -0.26538166403770447, 1.1386051177978516, 0.8543200492858887, -0.7997467517852783, 0.6782420873641968, 0.5845352411270142, 0.9458531737327576, -0.25028693675994873, 0.5688837170600891, -0.20854094624519348, -0.7497248649597168, -0.6194167137145996, 0.07749678194522858, -0.9648061990737915, 0.46712571382522583, -0.9660989046096802, 0.3704712986946106, 0.1074635311961174], [1.0410653352737427, 0.20443189144134521, -0.8767048716545105, 0.13166770339012146, -0.025496864691376686, -0.07665202021598816, 0.08411213755607605, -0.023106465116143227, 1.2290533781051636, 0.10071083903312683, -0.5325107574462891, 0.44542568922042847, -0.5326083302497864, 0.5692213773727417, -0.21462306380271912, -0.3124438524246216, 0.6790182590484619, -0.36546316742897034, -1.3130441904067993, 0.22145862877368927, -0.08273428678512573, 0.24202902615070343, -1.0277681350708008, 0.7352454662322998, -1.246764898300171, -0.3198166489601135, 0.8099566102027893, 1.126181721687317, -0.4042466878890991, -0.16493090987205505, -0.19451475143432617, -0.09827777743339539, -0.6737483739852905, -0.30487990379333496, 1.2464607954025269, -0.13057932257652283, -1.2545125484466553, -1.1680642366409302, -1.604705810546875, 0.49273112416267395, 0.7195387482643127, 0.7280260920524597], [-0.7212268710136414, 0.18097786605358124, -1.043184518814087, -1.9692155122756958, 0.4365495443344116, -1.2884597778320312, -1.1482315063476562, 0.2783766984939575, -0.15596292912960052, -0.5892813205718994, 1.1305758953094482, 0.5350087881088257, 0.772925078868866, -0.5387301445007324, -0.7660475373268127, -0.2489190250635147, 0.7939196825027466, -0.9242975115776062, 0.7273538708686829, -0.02635679580271244, 0.6015692353248596, -1.273747444152832, -0.5805238485336304, -0.13926678895950317, 0.048044364899396896, 0.38831451535224915, 0.9335951209068298, 0.30361565947532654, 0.09174255281686783, -1.4672013521194458, -0.6580999493598938, -0.42139333486557007, -0.043101076036691666, -1.3399367332458496, -0.9552299380302429, 0.1097266674041748, -1.8784164190292358, -0.3706342279911041, -0.17775164544582367, -0.5294469594955444, -0.9209309220314026, 0.38394254446029663], [-0.08738770335912704, -0.01861092448234558, -0.6397392153739929, -0.9787532091140747, 0.4889856278896332, 0.07939731329679489, -0.28619179129600525, -0.6347867846488953, 0.026592977344989777, 0.7839741706848145, -0.6919265389442444, -0.9398537874221802, -1.7712372541427612, -0.2252400517463684, 1.1795220375061035, -0.06413682550191879, -0.7504721283912659, 0.17640767991542816, 0.1417592167854309, 0.6061911582946777, -0.20148621499538422, 0.2692662477493286, 0.6188647747039795, -0.06218085065484047, -0.7068758010864258, 0.39947330951690674, 0.3969566822052002, -0.33832475543022156, -0.3274715542793274, -0.9743703007698059, 0.35481464862823486, 0.7085931897163391, 0.40903574228286743, -1.9624438285827637, 0.1929134875535965, -1.1478132009506226, 0.28973665833473206, -0.03966909646987915, -0.029786117374897003, 0.4083273708820343, -1.4945485591888428, 0.8308581709861755], [-0.2781757712364197, 0.08684659004211426, 0.6474977135658264, -2.1624245643615723, -1.1265201568603516, -0.03053038939833641, 0.09491929411888123, -0.03556372597813606, -0.21855874359607697, -1.3523029088974, -0.8002418875694275, 0.28292492032051086, -0.7266062498092651, 0.7274943590164185, 0.6958370208740234, -0.8083568811416626, -0.4525977075099945, -1.4838967323303223, 0.5346466302871704, -0.0952562540769577, 0.1408574879169464, 1.0752990245819092, -0.5795802474021912, 0.1769123375415802, 0.22111548483371735, 0.48572200536727905, 0.5509664416313171, 0.1500328928232193, -0.9229234457015991, -0.35979995131492615, -0.8778115510940552, -0.6997853517532349, -0.21909211575984955, 0.7387718558311462, 0.12177995592355728, -0.7867119908332825, 0.5528053641319275, 0.05059032514691353, 0.9296765923500061, -0.5246155261993408, 0.7860377430915833, 0.8258410096168518], [-0.5294126272201538, 0.5861361026763916, -0.13445550203323364, 0.23570998013019562, -1.1068689823150635, -0.42654868960380554, -0.8207744359970093, 0.5772724747657776, -0.11886545270681381, 0.0031713934149593115, 0.14566044509410858, -0.5102535486221313, -1.7174944877624512, -0.32914429903030396, -0.06779034435749054, 0.8215087652206421, -0.03817020356655121, -0.30311980843544006, -0.6202179193496704, 0.008103575557470322, 0.4483403265476227, 0.35774803161621094, -0.32892099022865295, 0.7013444304466248, 0.3938848674297333, 1.026376724243164, 0.1785316914319992, 0.03488222137093544, 1.0996335744857788, -2.3723862171173096, -0.5396918654441833, 0.6201014518737793, -0.6887665390968323, 1.4973500967025757, 0.6779829859733582, -1.059334635734558, 0.1645982414484024, 0.04355379194021225, 0.6616551280021667, -0.5957877039909363, -0.8969756364822388, -0.1431206613779068], [-0.5487964749336243, 0.4160993993282318, -0.3424125611782074, -0.8398439288139343, 0.21322272717952728, 0.6863812804222107, 0.8399952054023743, 0.15615807473659515, 0.15116964280605316, 1.2199361324310303, 0.5556675791740417, -0.8619352579116821, -0.06216907501220703, -1.1529626846313477, -0.5249797701835632, -0.29639774560928345, -0.30897799134254456, 0.49051225185394287, 0.15735389292240143, 0.22584174573421478, -1.0002076625823975, 0.625956654548645, 0.3751240074634552, 0.20334285497665405, -1.2085096836090088, 0.3194132447242737, -0.688041627407074, -0.12799695134162903, -0.22639234364032745, -0.13647788763046265, 0.30388131737709045, -0.8602275252342224, -0.6213372945785522, -1.5934926271438599, 0.6760308146476746, 0.4838608503341675, -1.5162571668624878, -1.0524485111236572, 0.2567518651485443, -1.0257976055145264, 0.034961409866809845, 0.7355276942253113], [-1.0232186317443848, -0.37189623713493347, 0.07856502383947372, -0.19937175512313843, -0.3281081020832062, -1.0485538244247437, -0.6263181567192078, 0.8851252794265747, -0.5870221853256226, -0.2531169056892395, -0.03220130130648613, -0.3523317575454712, -1.2977808713912964, -1.3562146425247192, 1.3428112268447876, -0.3122137188911438, 0.9599282741546631, -0.6378880143165588, -0.16103461384773254, -0.5732619166374207, 0.7203280925750732, 0.9686580896377563, 0.6116259098052979, 1.5530027151107788, -0.3746720552444458, 0.8759687542915344, -0.1852649748325348, -0.43777042627334595, 0.663378119468689, 0.16292762756347656, -1.289567470550537, -0.8156018853187561, -1.2069646120071411, 0.432812362909317, 0.5025431513786316, 1.4998843669891357, -4.064911842346191, 0.5861250758171082, 0.9477041959762573, -0.07634469121694565, -0.544842541217804, -0.5557664632797241], [0.14450600743293762, 0.3215140700340271, -0.4088274836540222, 0.6549502015113831, -1.0018928050994873, 1.427769422531128, 0.29174551367759705, 0.9078803062438965, 0.07687226682901382, 0.21024474501609802, 0.7437374591827393, 0.629201352596283, -0.09278227388858795, 0.22938543558120728, 0.09738830476999283, 0.29373788833618164, 0.05318303778767586, 1.5424963235855103, 0.16971071064472198, -0.21925590932369232, 0.2090163677930832, 0.053710393607616425, 0.9867669939994812, 1.1219192743301392, 1.5174833536148071, -1.140803337097168, 0.6021514534950256, 0.5118175148963928, 0.7457184195518494, 0.20786401629447937, 1.255224585533142, -0.547663688659668, -0.1886797398328781, 0.5356850624084473, 0.6715219616889954, 0.11724641919136047, 1.0935883522033691, 0.7019339799880981, -0.96213698387146, -0.35535526275634766, 1.3585582971572876, 0.2566503584384918], [0.10593216121196747, 0.5832489728927612, -1.3509873151779175, -0.10437113046646118, 0.21153336763381958, 0.029200810939073563, -1.0302588939666748, 0.7401688098907471, 0.48899707198143005, 0.28722336888313293, 0.8520395755767822, 0.07922036945819855, -1.5001801252365112, 0.08027973771095276, 0.10342732816934586, 0.8658183813095093, 0.18814530968666077, 1.1055245399475098, 1.2142705917358398, 0.6878238916397095, -0.19708049297332764, -0.3341291546821594, -1.1942726373672485, -0.09675473719835281, 0.4566379189491272, -0.08545048534870148, -0.3273673951625824, 1.0840541124343872, -0.3380727171897888, 0.2740737199783325, 0.3618265986442566, -1.0590012073516846, 0.6742491126060486, 0.8107689023017883, 0.33359768986701965, -0.9512918591499329, 0.19063979387283325, 0.5040848255157471, -0.4876866340637207, 0.9251001477241516, -1.0595194101333618, -0.7915991544723511], [1.161830186843872, 0.8596839308738708, -0.06810162216424942, 0.9243791103363037, 0.8123989701271057, -1.3805354833602905, 0.642641544342041, -0.36650538444519043, 1.1162348985671997, -0.4723934233188629, 0.12486770749092102, 0.7397913336753845, -0.3936089873313904, -0.4851168394088745, 0.5382795929908752, 0.9315990805625916, 0.47464078664779663, 0.11960846930742264, 0.7950213551521301, 0.6520318984985352, 0.029221970587968826, 0.7101559638977051, 0.4966026246547699, 0.009836703538894653, -0.12741611897945404, -0.5509284734725952, -1.145674705505371, -1.290038824081421, -0.8265812993049622, -0.6546728610992432, 0.4747343361377716, 0.02173587866127491, -0.1711699217557907, -0.28529319167137146, -0.14564509689807892, -0.26605165004730225, 0.4045443534851074, 0.046435318887233734, 0.6623501181602478, -0.0731063187122345, 0.6418180465698242, 0.16442258656024933], [0.9463912844657898, -0.0633164569735527, 0.6572221517562866, 0.8844515085220337, -0.1573888063430786, 0.71856689453125, -0.937086820602417, -2.063002109527588, -0.6794441938400269, -0.46682438254356384, 0.36107558012008667, 0.142683744430542, -1.8568614721298218, 0.6521863341331482, 0.14576810598373413, 0.5951650738716125, 0.10338608920574188, -0.22383752465248108, 1.3661688566207886, 0.9707744717597961, 0.6771115660667419, -0.5119817852973938, -0.29582616686820984, -0.774791419506073, -0.30605536699295044, 0.23513971269130707, -1.8945313692092896, -1.0043469667434692, 0.5650103688240051, -0.2974342703819275, -0.12103036046028137, 0.7536872029304504, 0.2849193513393402, 0.6681638956069946, -0.7662456631660461, 0.6154334545135498, -0.9960020780563354, -0.7414234280586243, 0.8077881932258606, 0.38888293504714966, 0.575947642326355, -0.23256242275238037], [-1.2315263748168945, -0.7336305975914001, 0.8976631760597229, -0.2551884055137634, -0.31330105662345886, -0.021047517657279968, 0.4279833436012268, 1.203174114227295, -0.9246509671211243, 0.3215615153312683, -0.4519130289554596, -0.3686947524547577, 1.1133345365524292, -0.5477371215820312, 0.008607501164078712, -0.8932619094848633, -0.6818329691886902, 0.8593591451644897, 0.8828279972076416, 0.9609010815620422, 1.4521032571792603, -0.03509226068854332, -0.750180184841156, 0.7865738272666931, 0.6174923181533813, 0.15006829798221588, 0.06748713552951813, -1.0163105726242065, -0.17917229235172272, 0.16092146933078766, 0.8464952111244202, -0.148027241230011, 1.0432400703430176, 0.4344867169857025, -0.6269510984420776, 0.1648644357919693, 0.3586476445198059, -0.8242113590240479, -0.5075721144676208, -0.14635878801345825, -0.5258674621582031, 0.26511961221694946]]]], [[[[-1.5221366882324219, -0.9922353625297546, 1.2825038433074951, -0.3878509998321533, -0.8840488791465759, 1.0986368656158447, 0.2552732229232788, -0.2051539123058319, -2.1864981651306152, -1.2677019834518433, -0.23831385374069214, 1.0149545669555664, -0.6634091138839722, -0.7386833429336548, -2.0470759868621826, -1.273011326789856, 0.2531270384788513, -0.6340468525886536, -0.6356824040412903, -2.5898683071136475, -1.5101004838943481, -0.25065430998802185, -1.1507331132888794, -2.7646586894989014, 0.8708164095878601, -1.7943739891052246, -1.1411550045013428, 2.3375000953674316, -2.39923095703125, -2.0359373092651367, -0.2287474423646927, 0.5914285182952881, -0.8017200827598572, -0.5678203105926514, 0.6496631503105164, -2.1151680946350098, 0.14417119324207306, -1.7277953624725342, -1.6090692281723022, -1.2030348777770996, -1.8882567882537842, -3.6451399326324463]]]], [[[[0.1045827642083168, -0.08723451942205429, 0.7564436197280884, 0.522061288356781, 0.08388251811265945, 0.45061448216438293, -0.3145790100097656, -0.24827949702739716, 0.35934391617774963, 0.5627878904342651, 1.198395013809204, 1.381022572517395, -0.9222819805145264, -0.11597670614719391, -0.3903485834598541, 0.39331674575805664, 1.683653473854065, -0.454651802778244, 0.2572477459907532, 0.7393872737884521, -0.03325532376766205, 0.559465229511261, -0.5288566946983337, -0.6383994221687317, -1.2877479791641235, -1.0153772830963135, 1.0527501106262207, 1.6070293188095093, 0.5396144390106201, -0.7462865114212036, 0.725148618221283, -0.0236760713160038, -0.19416196644306183, -0.6252893805503845, -1.8799759149551392, 0.5079531669616699, 0.9298834204673767, 0.4650031626224518, 1.3767857551574707, -0.3546256422996521, -1.0809576511383057, -1.58486807346344], [-0.645111620426178, -0.24106250703334808, 0.06390297412872314, -0.16097868978977203, 0.4832291305065155, 0.034254349768161774, -0.622567892074585, 0.4684489071369171, -0.20945914089679718, -0.68646639585495, -0.41820403933525085, 0.14957575500011444, 0.6468697786331177, -0.5275169014930725, 0.11865612864494324, -1.4284882545471191, -0.6517415642738342, 0.09448885172605515, 0.9269129037857056, 0.40741774439811707, 0.7266110777854919, -0.3628007471561432, 0.572929322719574, -0.27659156918525696, -0.09606821835041046, 0.6510637402534485, 0.5809550285339355, -0.7766104936599731, -0.5128708481788635, -0.0338614284992218, -0.18836647272109985, -0.09782245755195618, 0.4500616788864136, 0.13859467208385468, -0.6617595553398132, -0.8952363729476929, -0.968561589717865, -0.3385816514492035, -0.18435443937778473, 0.7703713178634644, -1.3774107694625854, 0.3541458547115326], [0.6703472137451172, -0.08569801598787308, -0.6868026852607727, 1.2168498039245605, -0.2591366171836853, -1.9329997301101685, -0.7069876194000244, -0.15191496908664703, -1.39469575881958, 1.6063055992126465, 0.2552683353424072, 0.2054489701986313, -0.323848694562912, -0.5382654070854187, 0.27287426590919495, 0.541745126247406, 0.4770895540714264, -0.7574608325958252, 0.7196219563484192, 0.8634129762649536, 0.7416744232177734, 0.2916346490383148, -0.41712966561317444, -0.6758424639701843, -0.3014046847820282, -0.5161071419715881, -1.0881619453430176, -0.02145449072122574, -2.454751968383789, -0.5201268196105957, 0.16233301162719727, -0.2648679316043854, -3.0372064113616943, -0.3816608786582947, 0.2856730818748474, -0.5650815963745117, 0.8509123921394348, -0.016947736963629723, 1.2941330671310425, -1.5428956747055054, 0.20378820598125458, -0.0705992579460144], [0.5921265482902527, 0.5222102999687195, 0.13329757750034332, -0.5273429751396179, 0.2232188731431961, 1.2410911321640015, 0.1092580109834671, 0.2737017869949341, 0.38740673661231995, 0.38839152455329895, -0.1989159882068634, -0.08107161521911621, -0.24832388758659363, 0.1544724404811859, 0.5114837884902954, 0.7115537524223328, -1.8780667781829834, -0.6894725561141968, -0.34142133593559265, -2.033661127090454, 0.08627244085073471, 0.6263099312782288, 0.08577533066272736, -1.9848062992095947, 0.41377905011177063, 0.13406869769096375, -1.1705758571624756, 0.9572052359580994, 0.24519607424736023, 1.1196837425231934, 0.140012726187706, -0.6182641386985779, -1.9453595876693726, -0.354068398475647, -0.5225457549095154, -0.16293828189373016, -0.7711871266365051, -2.7648539543151855, -1.0406925678253174, -1.649839997291565, -0.019216597080230713, 0.57127445936203], [-0.48330819606781006, -0.1681245118379593, 0.10559726506471634, -1.1622326374053955, 0.4467020630836487, -0.10636688023805618, -0.2206922024488449, 0.32750388979911804, 0.9234805703163147, -1.3920490741729736, 0.1816558986902237, 0.5199878811836243, -0.6422009468078613, 0.4038068354129791, -0.9163877964019775, 0.825896680355072, 0.1436166912317276, 0.20316444337368011, -1.56302809715271, 0.3319023549556732, 0.304618239402771, 0.35068485140800476, -0.6517854332923889, 0.3497569262981415, -0.9780654311180115, 1.0832775831222534, 0.3598555326461792, 0.46171000599861145, 0.5802065134048462, 0.29795944690704346, -1.765329360961914, -0.43595466017723083, 0.5639932751655579, -0.26230522990226746, -1.0330851078033447, 0.21316511929035187, -0.24005936086177826, -1.3938794136047363, 0.4247882664203644, 1.09395432472229, -1.4170986413955688, -0.35040995478630066], [0.019921928644180298, -0.16367989778518677, 0.05195316672325134, -0.7055972218513489, 0.04720166325569153, -0.992992639541626, 0.24091796576976776, 1.3217979669570923, -0.06118260696530342, 0.033883411437273026, -0.9050053954124451, 0.5561533570289612, 0.31083157658576965, -1.0387827157974243, 0.3579550087451935, -0.86667799949646, -0.08225381374359131, -0.1267348974943161, 0.07107334583997726, -0.9103806018829346, -1.4523084163665771, 0.0392119400203228, 1.2976455688476562, -0.8742645382881165, -1.981357455253601, -0.8588197231292725, -0.5472442507743835, -0.27313899993896484, 0.06573837995529175, -0.9656892418861389, 0.9792968034744263, 0.06932733952999115, -0.07455828785896301, 0.548326313495636, -0.008959543891251087, -0.23667801916599274, -0.07537607848644257, -0.1040566936135292, 0.8498343229293823, -0.3279768228530884, 0.6128563284873962, -0.3943248689174652], [0.6892430782318115, -0.4034740626811981, 0.1369401067495346, 0.9111985564231873, -1.1279211044311523, -0.19674977660179138, -1.1927294731140137, -0.2318478226661682, -0.34370604157447815, 0.8937830924987793, 0.4871750771999359, 0.16748909652233124, 0.8995410799980164, -0.7901361584663391, 0.5541070103645325, -0.6038673520088196, -0.18762299418449402, -0.7605978846549988, -0.6524307727813721, -0.16936300694942474, -0.791740894317627, 0.9787341356277466, -0.165047287940979, 0.48235541582107544, 0.14615781605243683, 1.1164674758911133, -0.40199926495552063, -0.28727540373802185, -1.0646578073501587, -0.31179144978523254, 0.3976716995239258, 0.26764610409736633, 0.12510736286640167, -0.3716156780719757, 0.9173089265823364, 0.44019660353660583, 0.6852970719337463, -0.29866310954093933, 0.5213602781295776, 0.2168675661087036, -0.8136712908744812, -0.11737237125635147], [-1.4673452377319336, 0.32887908816337585, -0.8762434720993042, 0.10428259521722794, 0.3515492379665375, -0.34937992691993713, -0.4236949682235718, -0.1625383347272873, -1.2124991416931152, -1.9973316192626953, 1.3972563743591309, 0.44896137714385986, 0.5365614295005798, -0.4604262113571167, -0.0761636346578598, 0.19805173575878143, -0.7517531514167786, -1.3328107595443726, 0.044799625873565674, -1.7024455070495605, -0.4688805341720581, 0.3398085832595825, -0.4687861502170563, 0.014614825136959553, -0.5693165063858032, -0.13259834051132202, 0.6934876441955566, -1.5952491760253906, 0.1649867445230484, -0.4109565019607544, -0.6162310838699341, -0.6662634611129761, -0.5249156951904297, -1.2335783243179321, 0.32738301157951355, -0.67254638671875, -0.6959698796272278, -0.29541951417922974, 0.21964861452579498, 0.21469077467918396, -0.21913670003414154, 0.2817051112651825], [0.17686672508716583, -0.15939442813396454, -0.16946887969970703, 0.1821344643831253, -0.6570544242858887, -0.6666404604911804, -0.08827275782823563, 0.46770626306533813, -0.555764377117157, 0.19834639132022858, -0.4893519878387451, 0.7283451557159424, -1.265634298324585, 0.6355136632919312, 0.3107239305973053, 0.28512299060821533, -0.9143985509872437, 0.42180436849594116, 0.3555121421813965, -0.7218896746635437, 0.9279902577400208, 0.7369166612625122, -0.35324347019195557, -0.24192266166210175, 1.166369080543518, -0.003939661663025618, 0.22415000200271606, 0.505709707736969, -0.6788215041160583, -0.6178572773933411, -1.1046558618545532, 0.3481341302394867, 0.47492361068725586, 0.3351898193359375, -1.4140747785568237, 0.8247673511505127, -0.20815205574035645, -1.8564181327819824, -1.0184929370880127, 0.44289177656173706, -0.14068204164505005, 0.2744537889957428], [0.235295832157135, 0.08635304868221283, 0.30508098006248474, -0.6671271324157715, -0.01772351749241352, -0.6503075361251831, 0.960911214351654, -0.30184972286224365, -0.816337525844574, -1.1421688795089722, -1.621384620666504, 0.46141695976257324, -0.8292005062103271, -1.4438949823379517, -0.17373931407928467, -1.0506949424743652, 0.7998549342155457, 0.00791538693010807, 1.4420030117034912, -0.8904789686203003, 0.6958842277526855, -0.5085489749908447, -0.26452064514160156, 0.5629642009735107, -0.4386148452758789, 0.5047035217285156, -0.3392839729785919, -0.7057948112487793, -0.9678817987442017, -0.12176573276519775, 0.009889358654618263, -0.4537122845649719, -0.5128509402275085, -0.12145636230707169, 0.07969536632299423, -0.2237095683813095, 0.6080154180526733, 0.33803367614746094, -2.8163950443267822, -0.23894740641117096, 1.3066152334213257, 1.3245723247528076], [-0.0792321264743805, 0.2430790662765503, -1.0235735177993774, 0.7461244463920593, 0.05045485869050026, 0.14106331765651703, 1.229911208152771, -0.08180080354213715, 0.7593656778335571, -0.03901993855834007, 0.26987001299858093, 0.7128570079803467, -0.12993796169757843, 0.5609163045883179, 0.01996574178338051, 0.04068801924586296, -0.3502884805202484, 0.4398472011089325, -0.16562001407146454, -0.663302481174469, 0.7242211103439331, 0.5310986042022705, 0.28788602352142334, 0.8062547445297241, -0.08431409299373627, -0.16892804205417633, -0.04399798810482025, 0.587051272392273, 0.6955426335334778, 0.8516282439231873, -0.28970468044281006, -1.8922425508499146, 0.30710530281066895, 0.5932650566101074, 0.34105125069618225, -0.6447784304618835, 0.6302350163459778, -1.6299124956130981, -0.29027560353279114, -0.4527982771396637, 0.9825750589370728, 0.10152805596590042], [-0.13043034076690674, 0.3875943124294281, -0.15849411487579346, -1.116318941116333, -0.8430984020233154, -0.12695741653442383, 1.4974210262298584, 0.4836277663707733, 1.0841360092163086, 0.42289474606513977, -1.1537301540374756, 2.0417327880859375, -0.09138356149196625, 0.15616124868392944, 0.5544119477272034, -1.9072271585464478, 0.3021719753742218, -0.38621240854263306, 0.36617767810821533, -0.811703085899353, 0.258219838142395, -1.3535188436508179, 0.3127612769603729, 0.04499059543013573, -0.06743445992469788, 0.08909828960895538, -0.724055826663971, -0.7444499731063843, 0.13014255464076996, 0.9636093974113464, -1.2372105121612549, 0.16196687519550323, -0.6411325335502625, 0.5048158764839172, 0.38971611857414246, 0.014557797461748123, -1.2969082593917847, 0.539917528629303, -0.7111148834228516, -0.349942147731781, -0.03910122066736221, -0.4943390190601349], [-1.7194145917892456, -0.06317563354969025, 0.4395219683647156, 0.7942180037498474, -0.7268673777580261, -0.06866404414176941, -1.2574011087417603, 0.09168771654367447, -1.440696120262146, -1.757534384727478, -0.7833021879196167, 0.2633058726787567, -0.38432714343070984, 0.2517303228378296, -0.4226427972316742, -0.1628858894109726, 0.3145601749420166, 0.46304386854171753, 0.05265825614333153, -0.477566123008728, -0.12074681371450424, 0.2938615381717682, 0.9215254187583923, 0.5560947060585022, 0.44281840324401855, -0.4777441918849945, 0.14583393931388855, -0.8338798880577087, -0.45555955171585083, -1.4908956289291382, -0.1691625863313675, -0.10616707801818848, 0.3370214104652405, 0.7803518772125244, -0.39007240533828735, -0.1724521666765213, 0.17651648819446564, -1.5777006149291992, -0.2572531998157501, -0.4952164888381958, -0.8804701566696167, 0.8714423179626465], [-0.17917200922966003, 0.07222724705934525, 0.01834503933787346, -0.8628033399581909, 0.30387577414512634, -2.4757943153381348, -0.6097691059112549, 0.39115774631500244, -0.45363855361938477, 1.0028308629989624, -1.388913869857788, -1.0956048965454102, -2.254772663116455, -0.0995333269238472, -0.7784677743911743, 0.016085520386695862, -1.9255882501602173, 0.27475735545158386, 0.08135291188955307, 0.28271907567977905, -1.2168806791305542, -0.4217163622379303, -0.9443894028663635, -1.7603217363357544, 0.5531311631202698, -0.36092400550842285, 0.08927454799413681, 0.24073834717273712, 0.6833226680755615, -0.0015994994901120663, -0.12365274131298065, -0.03562895953655243, 0.08537843078374863, 0.148833766579628, -0.3107527494430542, 1.4414485692977905, -0.06564967334270477, -0.7536137700080872, -0.12724654376506805, -0.5584790706634521, 0.28355520963668823, 0.2789081633090973], [0.43763667345046997, -0.07261507213115692, 0.029393067583441734, -0.39811673760414124, -0.7385741472244263, -1.8524839878082275, 0.5385302305221558, 0.3283764123916626, 0.7979629039764404, 0.2884853184223175, -0.725866973400116, -1.5956344604492188, 0.10272800177335739, -0.6071077585220337, 0.3579539358615875, 0.6368971467018127, 0.30221301317214966, -0.037494055926799774, -0.6183084845542908, 0.45214754343032837, -0.05758558586239815, 0.5183286070823669, -0.7781880497932434, -0.6036194562911987, 0.4948507845401764, 0.10902124643325806, 0.44721218943595886, 0.5556114912033081, 0.7887744903564453, 0.4932890832424164, 0.3858127295970917, 1.2577862739562988, -1.8006086349487305, 0.8208041787147522, -0.18653924763202667, 0.6036136150360107, 0.044510092586278915, 0.08824525028467178, 0.09354465454816818, 0.25242334604263306, -0.46492764353752136, 0.1976507306098938], [-0.3187059760093689, 0.2565756142139435, 0.5138638019561768, -0.11198245733976364, 1.0575895309448242, -0.02276943251490593, -0.7434471845626831, -0.5391374826431274, 0.2078934609889984, -1.4239253997802734, -1.101919174194336, 1.0696783065795898, 0.7862648963928223, -0.5922302007675171, 0.21591822803020477, 0.9895327091217041, -0.22546949982643127, -2.0331127643585205, -1.6781338453292847, 0.41848987340927124, -0.11355862766504288, 0.5704836845397949, 1.017655611038208, 1.2346811294555664, 0.5365092158317566, -0.009430471807718277, -0.9549002051353455, -1.2770799398422241, 0.08272472023963928, -0.5293155908584595, 0.8718261122703552, 0.5717477202415466, -0.7778766751289368, 0.6212314963340759, -0.06579907983541489, 0.18409697711467743, -0.231337308883667, -0.18979564309120178, -0.24297770857810974, 0.5350013971328735, 1.2222295999526978, 0.5362998843193054], [0.9312062859535217, 0.13014915585517883, -0.02112225443124771, -0.08591101318597794, 0.9952017664909363, 0.36592692136764526, 0.7217733263969421, -0.5333999991416931, -1.3437893390655518, -0.05634453147649765, -0.12570542097091675, 1.3366633653640747, -0.18585120141506195, 0.22160039842128754, -0.9584410190582275, -0.34513089060783386, -0.10671021044254303, -0.5412150621414185, 0.039666157215833664, 0.7848411798477173, 0.46644720435142517, -0.8458338379859924, 0.3563438951969147, -0.5864996910095215, -0.03891920670866966, -0.5691922903060913, -0.3388959765434265, 0.8113871812820435, -0.37684398889541626, -0.020692825317382812, 1.067502737045288, 1.077161431312561, -0.3052751123905182, -0.6137194037437439, -0.6464257836341858, 0.32449856400489807, -0.2523990869522095, -0.5128768682479858, 0.6478665471076965, 0.7036992311477661, 0.01882530003786087, -0.31565114855766296], [0.0807042047381401, -0.38812771439552307, -2.4943721294403076, -1.1403611898422241, -0.20679238438606262, -0.6307550072669983, 0.14355714619159698, -0.0934053361415863, 0.1376170814037323, 0.4694228172302246, 0.1869121640920639, -0.9049965143203735, 0.8175423741340637, -0.900317370891571, 0.20272241532802582, 0.8077310919761658, -0.28248417377471924, 0.5824374556541443, 0.7499364614486694, -2.02897047996521, 0.27544984221458435, -0.2793401777744293, 1.1640079021453857, -1.1836447715759277, 0.564215898513794, 1.0996745824813843, 0.3663317561149597, -0.5955674648284912, 0.10142485797405243, 1.1871156692504883, -0.284280389547348, -0.34594666957855225, 1.021888256072998, -0.4035218358039856, -0.7290863990783691, 0.39137002825737, 0.11795482784509659, -1.266390085220337, -0.38399648666381836, 1.6147397756576538, -0.36244073510169983, -0.41357922554016113], [0.9263921976089478, 0.6906442642211914, 0.5694780945777893, -0.14020058512687683, 0.8535188436508179, 0.8973832130432129, -0.9861505031585693, 0.308826744556427, 0.7050002813339233, -0.54085773229599, -1.1360399723052979, -0.6418917179107666, -0.06634364277124405, -0.797422468662262, -0.4790596663951874, -0.1310548484325409, 0.1421729475259781, -0.5659727454185486, -0.6310532689094543, 1.0056705474853516, -0.1856476217508316, -0.13004057109355927, -0.17125067114830017, 0.19739991426467896, -0.1443181335926056, -0.4308585822582245, -0.7262678146362305, 0.2985140383243561, -0.1714106649160385, -0.37789058685302734, -0.18314488232135773, 0.8309230208396912, 0.7404674291610718, -0.21826817095279694, 0.16377709805965424, -0.15303350985050201, 0.9135329723358154, -0.43991899490356445, -1.1437034606933594, 0.6767241954803467, 0.9681243896484375, 0.10292643308639526], [0.44923749566078186, -0.211699977517128, -0.16650915145874023, 0.6409260630607605, 0.45906931161880493, -0.7662221193313599, 0.46802839636802673, 0.21086010336875916, -0.9516234993934631, 0.16746796667575836, -0.5879092812538147, -0.39165112376213074, -1.6645807027816772, 1.255933403968811, -0.45340093970298767, 0.7127810716629028, -0.11980385333299637, 1.2132407426834106, -0.21259647607803345, -0.10713440924882889, -0.6536176204681396, -1.0409300327301025, 0.4437241852283478, 0.5159806609153748, 0.4826258420944214, 0.5261231064796448, 0.7870002388954163, -0.4526517987251282, -0.3395361304283142, -0.48144012689590454, 0.5078837871551514, 1.0559327602386475, -0.2179100662469864, -0.45946839451789856, 1.397671103477478, -0.6104539036750793, -0.09989282488822937, 1.301375150680542, -0.38214343786239624, -0.3150535821914673, 0.2938959002494812, 0.16083458065986633], [0.2835714817047119, -0.3224338889122009, -1.0497666597366333, -0.41188663244247437, -0.02713552676141262, -0.8543058633804321, 0.21855521202087402, -0.3981401324272156, 0.5146173238754272, -0.024070266634225845, 0.6012831330299377, -0.41608601808547974, -0.15647703409194946, -0.7696290016174316, -0.05054720863699913, 0.755858838558197, 0.8341167569160461, 1.1768823862075806, 0.3740285038948059, 1.2924202680587769, 0.07094741612672806, -0.7811297178268433, 0.6745279431343079, 0.9942165017127991, 0.9664624929428101, -0.8264504075050354, 0.26725462079048157, -0.34184637665748596, -0.3163917660713196, 0.5169478058815002, -0.3464902639389038, 0.03385862335562706, 0.18831783533096313, -0.6982250809669495, 0.4749032258987427, -0.4377067983150482, -0.13091625273227692, 0.6042985916137695, -0.27951890230178833, -2.2396156787872314, 0.14563192427158356, -0.009724992327392101], [0.02864892967045307, 0.4069753885269165, 0.48048707842826843, 0.23532390594482422, 0.8466751575469971, 0.15525494515895844, -2.119671106338501, 0.12073653936386108, 0.8153257966041565, -1.5572117567062378, 0.12299951910972595, -1.5258409976959229, -0.084243044257164, 0.09601456671953201, -0.3002650737762451, 0.36141645908355713, -0.6622756123542786, 0.2058265060186386, -0.04385657235980034, 0.5066062211990356, 0.5415058135986328, -1.3035703897476196, 0.3879684805870056, 0.18541918694972992, 0.07904575765132904, -2.226050615310669, -0.04901166260242462, 1.0194921493530273, 0.19267034530639648, 0.5399727821350098, -0.1266741156578064, 0.8285514116287231, -0.6695393919944763, -2.377462148666382, 0.1090918630361557, 0.6956942081451416, 0.417125940322876, -0.4103214144706726, 0.9295023679733276, -0.35954549908638, 0.659676730632782, -0.014128103852272034], [-0.4129115641117096, 0.20088110864162445, 0.29745450615882874, -1.0877056121826172, 0.5746470093727112, -1.9537134170532227, -0.6621429324150085, 0.1411701738834381, -1.605483055114746, -2.8632290363311768, 0.07156870514154434, 0.045798949897289276, -1.111749291419983, 0.627636194229126, -1.5220391750335693, -0.8868166208267212, 0.25838303565979004, -0.34085893630981445, 0.18607692420482635, -1.7588530778884888, 0.9026537537574768, 1.4413437843322754, -0.32852673530578613, 0.7944155335426331, -0.1748027205467224, -0.31591713428497314, 0.0932636708021164, -1.3509721755981445, 0.29080730676651, 0.8007755279541016, -0.805218517780304, -1.9777934551239014, -0.17281684279441833, -0.049430910497903824, 0.6138759851455688, 0.23112189769744873, 0.3657151162624359, 0.8530350923538208, -0.4882623851299286, 0.5565088391304016, 1.3746261596679688, -0.03722751513123512], [1.0605276823043823, -0.1140521764755249, 0.6722729802131653, -0.19353127479553223, -0.4045749604701996, 1.2537068128585815, -0.8821853399276733, 0.8320701718330383, -1.0316952466964722, 0.017642581835389137, 0.9809663891792297, 0.0063690124079585075, 1.123236060142517, 0.41080257296562195, 0.29384496808052063, 0.08678047358989716, -0.7962539196014404, -0.08874198794364929, -0.2735353410243988, -0.9965655207633972, 0.2890816926956177, -0.5481203198432922, -0.0984392911195755, 0.8691313862800598, 0.5348188281059265, 0.4174756705760956, 0.3851906955242157, 0.1452418714761734, 1.013018250465393, -0.5138707160949707, 0.4278324842453003, -0.7782918810844421, 0.8521990180015564, 0.5018858909606934, -0.1085468977689743, 0.23457536101341248, -0.09404022246599197, -0.04056888073682785, -1.4064749479293823, -0.8636981844902039, 0.3379637598991394, 0.13651695847511292], [0.45987656712532043, 0.11553312838077545, 0.49883925914764404, -0.0690821185708046, 0.3547433316707611, 0.10058819502592087, -0.9225379824638367, -0.7006428241729736, -0.24363647401332855, 0.8848378658294678, 0.6297715902328491, -0.16976596415042877, 0.04047229886054993, -0.5310812592506409, 0.2880706787109375, 0.22277486324310303, -0.022815410047769547, -0.04442581534385681, 0.3992467224597931, 1.2345964908599854, -0.8306537866592407, -0.11060114204883575, 0.6259456872940063, -0.4725188612937927, -1.3232645988464355, -0.505262553691864, -0.19441089034080505, -0.30179324746131897, -1.1494824886322021, -0.47239255905151367, 0.4007081389427185, -1.1083788871765137, 1.138449788093567, -0.23806864023208618, 0.29720842838287354, -0.4910854995250702, 0.956323504447937, -0.5190593600273132, 0.36514395475387573, 1.847210168838501, 1.4927440881729126, -0.8691287040710449], [-0.2991820275783539, -0.18461830914020538, -0.27560892701148987, 0.37466880679130554, -0.013262192718684673, -0.3243800103664398, -1.2553938627243042, -0.29776960611343384, 0.794403076171875, -0.7162554860115051, -0.843828022480011, -0.25119641423225403, 0.4638111889362335, 0.6646761298179626, 0.8564238548278809, -1.0229943990707397, 0.33396589756011963, 1.24709951877594, -0.7999982833862305, -1.1190295219421387, -0.32353973388671875, 0.9640942811965942, 0.829738438129425, -0.33521804213523865, -0.784879744052887, 1.145124077796936, 0.03054766356945038, 0.054155394434928894, 0.28370678424835205, 0.6475886702537537, -1.4305473566055298, -0.8647871017456055, 0.05818009376525879, -0.2072857916355133, 0.4528088867664337, 0.0627136379480362, -0.49917125701904297, -0.07101677358150482, -0.4455501139163971, -1.4448449611663818, -0.06592066586017609, 0.9103558659553528], [-0.060426339507102966, -0.5422359108924866, -0.426565557718277, 1.5425273180007935, 0.6043702960014343, 1.050600528717041, 0.8319188356399536, 0.5929164290428162, -1.1061780452728271, -0.9643619060516357, -0.534081757068634, -0.10942623019218445, -0.10667063295841217, -0.505752444267273, 1.081980586051941, 0.7378822565078735, 0.1316927820444107, 0.8782802224159241, -0.49006494879722595, 0.32713162899017334, -0.871807873249054, 0.27394384145736694, -0.4754318296909332, 0.6286408305168152, 0.703296422958374, 0.7315201163291931, -0.17859779298305511, 0.06161995604634285, 0.5264566540718079, -0.7111911177635193, -0.9799243807792664, -0.19575060904026031, -0.28350794315338135, 0.4206576347351074, -0.13846716284751892, -0.43542253971099854, -2.042480945587158, 0.7150964736938477, -1.0553869009017944, 0.37097057700157166, 0.43652892112731934, -0.11729280650615692], [-0.7983335256576538, 0.12270277738571167, -0.3743027448654175, -0.10976986587047577, 0.118567556142807, -0.6225278377532959, -0.9048441052436829, -0.0723935216665268, -1.0947213172912598, 0.0677323117852211, 0.20113956928253174, -0.22113129496574402, -0.7495532631874084, 0.12253625690937042, -0.8895329833030701, -0.8511890769004822, 0.837374746799469, 